{"learner":{"attributes":{"scikit_learn":"{\"_estimator_type\": \"classifier\"}"},"feature_names":[],"feature_types":[],"gradient_booster":{"model":{"cats":{"enc":[],"feature_segments":[],"sorted_idx":[]},"gbtree_model_param":{"num_parallel_tree":"1","num_trees":"50"},"iteration_indptr":[0,1,2,3,4,5,6,7,8,9,10,11,12,13,14,15,16,17,18,19,20,21,22,23,24,25,26,27,28,29,30,31,32,33,34,35,36,37,38,39,40,41,42,43,44,45,46,47,48,49,50],"tree_info":[0,0,0,0,0,0,0,0,0,0,0,0,0,0,0,0,0,0,0,0,0,0,0,0,0,0,0,0,0,0,0,0,0,0,0,0,0,0,0,0,0,0,0,0,0,0,0,0,0,0],"trees":[{"base_weights":[-7.1235135E-8,3.3431745E0,-4.597693E-1,5.95709E0,2.483858E0,9.653725E-1,-5.7655627E-1,6.3351383E0,4.270595E0,9.085903E-1,2.7768347E0,3.2078395E0,6.832607E-1,-5.8924925E-1,4.573578E-1,6.419793E0,2.803078E-1,4.5577726E0,1.909546E0,7.111623E-1,4.5870376E-1,2.342052E0,3.6086745E0,3.3028708E0,7.511312E-2,2.9469519E0,2.850757E-1,1.5644948E0,-6.026415E-1,4.3316117E-1,6.6102904E-1,4.9066564E-1,2.2419511E-1,2.6286742E-1,2.3428256E-2,1.5778711E-2,1.3959788E-1,1.7971404E-1,2.6216695E-1,4.479711E-1,2.2728363E-1,3.4775826E-1,1.2668993E-1,-8.573846E-4,3.1407028E-1,2.5120506E-1,1.02621475E-2,1.937646E-1,-2.8040016E-2,-7.725603E-2,-4.773447E-2],"categories":[],"categories_nodes":[],"categories_segments":[],"categories_sizes":[],"default_left":[0,0,0,0,0,0,0,0,0,0,0,0,0,0,0,0,0,0,0,0,0,0,0,0,0,0,0,0,0,0,0,0,0,0,0,0,0,0,0,0,0,0,0,0,0,0,0,0,0,0,0],"id":0,"left_children":[1,3,5,7,9,11,13,15,17,19,21,23,25,27,-1,29,-1,31,33,35,-1,37,39,41,-1,43,45,47,49,-1,-1,-1,-1,-1,-1,-1,-1,-1,-1,-1,-1,-1,-1,-1,-1,-1,-1,-1,-1,-1,-1],"loss_changes":[5.057635E3,8.787417E2,4.8199414E2,3.524048E1,1.364386E2,1.3664534E2,1.7750476E2,5.2507324E0,5.5083923E0,3.210828E1,8.319287E1,3.1813812E0,1.7601555E2,7.79104E1,0E0,1.2617188E0,0E0,3.5151367E0,4.1958227E0,1.774505E1,0E0,2.107843E1,8.88739E1,3.795395E0,0E0,1.6772705E1,6.798984E1,1.2087059E1,5.610742E1,0E0,0E0,0E0,0E0,0E0,0E0,0E0,0E0,0E0,0E0,0E0,0E0,0E0,0E0,0E0,0E0,0E0,0E0,0E0,0E0,0E0,0E0],"parents":[2147483647,0,0,1,1,2,2,3,3,4,4,5,5,6,6,7,7,8,8,9,9,10,10,11,11,12,12,13,13,15,15,17,17,18,18,19,19,21,21,22,22,23,23,25,25,26,26,27,27,28,28],"right_children":[2,4,6,8,10,12,14,16,18,20,22,24,26,28,-1,30,-1,32,34,36,-1,38,40,42,-1,44,46,48,50,-1,-1,-1,-1,-1,-1,-1,-1,-1,-1,-1,-1,-1,-1,-1,-1,-1,-1,-1,-1,-1,-1],"split_conditions":[-9.397475E-1,-5.0779524E0,-1.2299162E0,1E0,1E0,-1.1807598E0,1E0,8.7363464E-1,-5.115537E0,1E0,-1.1994398E0,1E0,-1.2791638E0,-5.099429E0,4.573578E-1,-2.0682695E0,2.803078E-1,1.5371713E-1,4.7907403E-1,8.90097E-1,4.5870376E-1,-1.9784826E0,1E0,8.7363464E-1,7.511312E-2,1E0,-1.247395E0,-1.1357449E0,1E0,4.3316117E-1,6.6102904E-1,4.9066564E-1,2.2419511E-1,2.6286742E-1,2.3428256E-2,1.5778711E-2,1.3959788E-1,1.7971404E-1,2.6216695E-1,4.479711E-1,2.2728363E-1,3.4775826E-1,1.2668993E-1,-8.573846E-4,3.1407028E-1,2.5120506E-1,1.02621475E-2,1.937646E-1,-2.8040016E-2,-7.725603E-2,-4.773447E-2],"split_indices":[8,2,6,55,42,5,52,1,2,44,4,15,7,2,0,5,0,1,6,6,0,5,59,1,0,42,0,4,42,0,0,0,0,0,0,0,0,0,0,0,0,0,0,0,0,0,0,0,0,0,0],"split_type":[0,0,0,0,0,0,0,0,0,0,0,0,0,0,0,0,0,0,0,0,0,0,0,0,0,0,0,0,0,0,0,0,0,0,0,0,0,0,0,0,0,0,0,0,0,0,0,0,0,0,0],"sum_hessian":[3.2883987E3,3.9680344E2,2.8915952E3,9.6705864E1,3.0009756E2,2.1846144E2,2.6731338E3,7.674593E1,1.995993E1,4.7704235E1,2.5239333E2,2.3253319E1,1.9520813E2,2.667445E3,5.6885805E0,7.4151146E1,2.594791E0,1.696594E1,2.9939897E0,4.640684E1,1.2973955E0,1.6826222E2,8.413111E1,2.2055723E1,1.1975958E0,2.8243303E1,1.6696483E2,1.5768346E1,2.6516768E3,8.183572E0,6.5967575E1,1.3772352E1,3.193589E0,1.6965941E0,1.2973955E0,2.6347109E1,2.005973E1,5.9580395E1,1.0868182E2,4.950063E1,3.463048E1,1.9660532E1,2.3951917E0,1.7963938E0,2.6446909E1,1.1676559E1,1.5528827E2,1.3073755E1,2.6945908E0,1.1232451E3,1.5284318E3],"tree_param":{"num_deleted":"0","num_feature":"62","num_nodes":"51","size_leaf_vector":"1"}},{"base_weights":[-7.474738E-3,2.320141E0,-4.3065464E-1,3.4867902E0,1.840526E0,8.0236053E-1,-5.443555E-1,3.5114486E0,1.1538976E-1,7.7569133E-1,2.0119054E0,2.295392E0,5.796279E-1,-5.568347E-1,3.0820224E0,3.5936701E0,2.474597E0,1.4082584E-1,1.4442701E0,1.7544153E0,2.4628406E0,7.2721824E-2,2.364585E0,2.1233895E0,2.5085863E-1,-2.0729774E-1,-6.3096696E-1,3.4737995E-1,5.5752505E-2,3.6349857E-1,2.074141E-1,2.6791438E-1,4.679978E-2,-2.421234E-2,1.9977348E-1,2.7844533E-1,8.6424075E-2,2.2528096E-1,1.580361E-1,2.876886E-1,1.7204715E-1,2.5237677E-1,1.3467659E-1,3.810463E-1,1.8044238E-1,1.1771645E-2,2.602556E-1,1.7517118E-1,-2.6751248E-2,-8.061051E-2,-5.640487E-2],"categories":[],"categories_nodes":[],"categories_segments":[],"categories_sizes":[],"default_left":[0,0,0,0,0,0,0,0,0,0,0,0,0,0,0,0,0,0,0,0,0,0,0,0,0,0,0,0,0,0,0,0,0,0,0,0,0,0,0,0,0,0,0,0,0,0,0,0,0,0,0],"id":1,"left_children":[1,3,5,7,9,11,13,15,-1,17,19,21,23,25,27,29,31,33,35,37,39,-1,41,43,45,47,49,-1,-1,-1,-1,-1,-1,-1,-1,-1,-1,-1,-1,-1,-1,-1,-1,-1,-1,-1,-1,-1,-1,-1,-1],"loss_changes":[3.2498025E3,2.7758398E2,3.918211E2,4.3900146E0,6.446619E1,7.7185135E1,1.1741376E2,3.4455566E0,0E0,2.177749E1,3.1792236E1,1.5694733E0,1.0442273E2,6.591083E1,6.886223E0,7.3999023E-1,4.4287186E0,2.0160357E1,1.7116707E1,1.3915283E1,2.9036804E1,0E0,1.232727E0,1.258992E1,5.342907E1,5.3250504E1,2.4183472E1,0E0,0E0,0E0,0E0,0E0,0E0,0E0,0E0,0E0,0E0,0E0,0E0,0E0,0E0,0E0,0E0,0E0,0E0,0E0,0E0,0E0,0E0,0E0,0E0],"parents":[2147483647,0,0,1,1,2,2,3,3,4,4,5,5,6,6,7,7,9,9,10,10,11,11,12,12,13,13,14,14,15,15,16,16,17,17,18,18,19,19,20,20,22,22,23,23,24,24,25,25,26,26],"right_children":[2,4,6,8,10,12,14,16,-1,18,20,22,24,26,28,30,32,34,36,38,40,-1,42,44,46,48,50,-1,-1,-1,-1,-1,-1,-1,-1,-1,-1,-1,-1,-1,-1,-1,-1,-1,-1,-1,-1,-1,-1,-1,-1],"split_conditions":[-9.397475E-1,-5.0779524E0,-1.2299162E0,1E0,1E0,-1.1807598E0,1E0,1E0,1.1538976E-1,8.90097E-1,-1.1994398E0,1E0,-1.2791638E0,-1.1662817E-1,8.607562E-1,-1.361646E0,1.5335697E0,1.2440565E0,-1.6771547E0,-1.6627346E0,1E0,7.2721824E-2,1E0,-5.137014E0,1.7231817E0,-5.1047983E0,3.967457E-1,3.4737995E-1,5.5752505E-2,3.6349857E-1,2.074141E-1,2.6791438E-1,4.679978E-2,-2.421234E-2,1.9977348E-1,2.7844533E-1,8.6424075E-2,2.2528096E-1,1.580361E-1,2.876886E-1,1.7204715E-1,2.5237677E-1,1.3467659E-1,3.810463E-1,1.8044238E-1,1.1771645E-2,2.602556E-1,1.7517118E-1,-2.6751248E-2,-8.061051E-2,-5.640487E-2],"split_indices":[8,2,6,20,42,5,52,59,0,6,4,42,7,4,0,7,5,0,7,7,59,0,56,2,0,2,8,0,0,0,0,0,0,0,0,0,0,0,0,0,0,0,0,0,0,0,0,0,0,0,0],"split_type":[0,0,0,0,0,0,0,0,0,0,0,0,0,0,0,0,0,0,0,0,0,0,0,0,0,0,0,0,0,0,0,0,0,0,0,0,0,0,0,0,0,0,0,0,0,0,0,0,0,0,0],"sum_hessian":[3.2972764E3,5.0656036E2,2.790716E3,1.4575233E2,3.6080804E2,2.351039E2,2.555612E3,1.4372797E2,2.024379E0,5.07858E1,3.1002222E2,2.9312098E1,2.057918E2,2.5476914E3,7.920733E0,1.3088307E2,1.2844889E1,2.6670656E1,2.4115145E1,2.0045206E2,1.09570175E2,1.7250851E0,2.7587013E1,3.5173466E1,1.7061833E2,4.4645114E2,2.1012402E3,6.531131E0,1.3896023E0,1.2606327E2,4.819801E0,1.1352482E1,1.4924066E0,2.28317E1,3.8389583E0,6.1363354E0,1.797881E1,4.879299E1,1.5165906E2,6.849361E1,4.1076572E1,2.257655E1,5.010463E0,3.8521824E0,3.1321283E1,1.624701E2,8.148244E0,1.2475803E1,4.3397534E2,5.7784937E2,1.5233909E3],"tree_param":{"num_deleted":"0","num_feature":"62","num_nodes":"51","size_leaf_vector":"1"}},{"base_weights":[-1.0333465E-2,1.7922328E0,-4.0256864E-1,2.5560262E0,1.4550722E0,6.8372256E-1,-5.130001E-1,2.5731778E0,-1.5184896E-2,6.683941E-1,1.5713389E0,-6.13316E-1,8.625484E-1,-5.2520484E-1,2.3633559E0,2.6712115E0,2.078127E0,5.184993E-1,2.9439157E-1,1.1097016E0,1.6936606E0,-7.1375376E-1,-4.4504227E-3,1.1157556E0,-1.6872784E-1,-1.8996343E-1,-5.987155E-1,2.600408E-1,5.133338E-2,2.7683032E-1,2.1938662E-1,2.1696837E-1,4.534528E-2,8.314107E-2,1.4804484E-3,1.3560341E-1,7.512184E-2,1.869617E-1,1.2778518E-1,-1.2192486E-2,-8.1575155E-2,-5.9143957E-2,8.913943E-2,1.3255791E-1,2.5375668E-2,1.0004051E-1,-3.586298E-2,-2.5956644E-2,1.3886388E-1,-7.110428E-2,-4.9256366E-2],"categories":[],"categories_nodes":[],"categories_segments":[],"categories_sizes":[],"default_left":[0,0,0,0,0,0,0,0,0,0,0,0,0,0,0,0,0,0,0,0,0,0,0,0,0,0,0,0,0,0,0,0,0,0,0,0,0,0,0,0,0,0,0,0,0,0,0,0,0,0,0],"id":2,"left_children":[1,3,5,7,9,11,13,15,-1,17,19,21,23,25,27,29,31,33,-1,35,37,39,41,43,45,47,49,-1,-1,-1,-1,-1,-1,-1,-1,-1,-1,-1,-1,-1,-1,-1,-1,-1,-1,-1,-1,-1,-1,-1,-1],"loss_changes":[2.321475E3,1.4739038E2,3.238385E2,8.675049E0,3.6395813E1,5.8345146E1,8.7190674E1,3.0541992E0,0E0,1.7048265E1,1.8220459E1,1.8795671E0,5.750032E1,5.998822E1,3.2815628E0,6.2353516E-1,4.045746E0,8.231625E0,0E0,5.8216095E0,1.8059448E1,1.4954882E0,3.3488107E0,3.1558853E1,1.0157481E1,4.8712936E1,2.3494263E1,0E0,0E0,0E0,0E0,0E0,0E0,0E0,0E0,0E0,0E0,0E0,0E0,0E0,0E0,0E0,0E0,0E0,0E0,0E0,0E0,0E0,0E0,0E0,0E0],"parents":[2147483647,0,0,1,1,2,2,3,3,4,4,5,5,6,6,7,7,9,9,10,10,11,11,12,12,13,13,14,14,15,15,16,16,17,17,19,19,20,20,21,21,22,22,23,23,24,24,25,25,26,26],"right_children":[2,4,6,8,10,12,14,16,-1,18,20,22,24,26,28,30,32,34,-1,36,38,40,42,44,46,48,50,-1,-1,-1,-1,-1,-1,-1,-1,-1,-1,-1,-1,-1,-1,-1,-1,-1,-1,-1,-1,-1,-1,-1,-1],"split_conditions":[-9.397475E-1,-5.0779524E0,-1.2299162E0,1.5935521E0,1E0,1E0,1E0,1E0,-1.5184896E-2,1E0,-1.9784826E0,-1.256092E0,1E0,-1.1662817E-1,8.607562E-1,-1.9846171E0,1E0,-1.1357449E0,2.9439157E-1,1E0,1E0,1E0,1.6775591E0,1E0,-1.2791638E0,-1.3085806E0,1E0,2.600408E-1,5.133338E-2,2.7683032E-1,2.1938662E-1,2.1696837E-1,4.534528E-2,8.314107E-2,1.4804484E-3,1.3560341E-1,7.512184E-2,1.869617E-1,1.2778518E-1,-1.2192486E-2,-8.1575155E-2,-5.9143957E-2,8.913943E-2,1.3255791E-1,2.5375668E-2,1.0004051E-1,-3.586298E-2,-2.5956644E-2,1.3886388E-1,-7.110428E-2,-4.9256366E-2],"split_indices":[8,2,6,1,42,33,52,55,0,44,5,7,59,4,0,8,44,4,0,31,59,39,3,54,7,7,42,0,0,0,0,0,0,0,0,0,0,0,0,0,0,0,0,0,0,0,0,0,0,0,0],"split_type":[0,0,0,0,0,0,0,0,0,0,0,0,0,0,0,0,0,0,0,0,0,0,0,0,0,0,0,0,0,0,0,0,0,0,0,0,0,0,0,0,0,0,0,0,0,0,0,0,0,0,0],"sum_hessian":[3.2813984E3,5.857842E2,2.6956143E3,1.773775E2,4.0840665E2,2.4826747E2,2.4473467E3,1.7631052E2,1.0669985E0,5.3457043E1,3.5494962E2,2.9787397E1,2.1848007E2,2.4378203E3,9.52655E0,1.4349811E2,3.2812405E1,5.1305283E1,2.1517582E0,7.6461006E1,2.784886E2,2.5421612E1,4.365787E0,1.7534584E2,4.3134224E1,4.390664E2,1.9987538E3,8.084974E0,1.4415755E0,1.1525578E2,2.8242323E1,3.074438E1,2.0680244E0,3.1244545E1,2.0060738E1,4.367023E1,3.279077E1,1.9322565E2,8.526295E1,4.0599046E0,2.1361706E1,2.8428488E0,1.5229381E0,1.4058705E2,3.47588E1,5.43089E0,3.7703335E1,4.213251E2,1.77413E1,9.683604E2,1.0303934E3],"tree_param":{"num_deleted":"0","num_feature":"62","num_nodes":"51","size_leaf_vector":"1"}},{"base_weights":[-1.1884006E-2,1.4555858E0,-3.7587637E-1,2.0350502E0,1.187894E0,5.8330935E-1,-4.824998E-1,2.0471673E0,-1.4475514E-2,5.844394E-1,1.2726352E0,-5.817639E-1,7.2789884E-1,-4.9435627E-1,1.9231216E0,1.8224034E0,2.1868052E0,4.5292428E-1,2.4441798E-1,1.1156151E0,1.5463511E0,-6.8257403E-1,5.876181E-5,9.2511666E-1,-1.5351236E-1,-3.0081278E-1,-6.1626375E-1,2.0663173E0,2.691163E-2,1.8759653E-1,1.26053635E-2,2.1987835E-1,5.6830067E-2,1.1029124E-2,7.9556786E-2,1.15581684E-1,1.0610822E-2,1.6835289E-1,6.0718067E-2,2.245973E-2,-7.394055E-2,-5.6672722E-2,8.0312125E-2,1.1364752E-1,2.7004156E-2,8.648777E-2,-3.329192E-2,1.401401E-1,-3.2941118E-2,-7.493532E-2,-5.41632E-2,2.2234099E-1,8.662247E-2],"categories":[],"categories_nodes":[],"categories_segments":[],"categories_sizes":[],"default_left":[0,0,0,0,0,0,0,0,0,0,0,0,0,0,0,0,0,0,0,0,0,0,0,0,0,0,0,0,0,0,0,0,0,0,0,0,0,0,0,0,0,0,0,0,0,0,0,0,0,0,0,0,0],"id":3,"left_children":[1,3,5,7,9,11,13,15,-1,17,19,21,23,25,27,29,31,33,-1,35,37,39,41,43,45,47,49,51,-1,-1,-1,-1,-1,-1,-1,-1,-1,-1,-1,-1,-1,-1,-1,-1,-1,-1,-1,-1,-1,-1,-1,-1,-1],"loss_changes":[1.7396582E3,9.7988525E1,2.6716684E2,5.661621E0,2.2020386E1,4.4477425E1,6.795093E1,2.3571167E0,0E0,1.2751963E1,1.5014709E1,1.7260685E0,4.0659462E1,5.4986206E1,2.221035E0,7.3445435E0,1.0698853E0,6.269352E0,0E0,1.0067871E1,1.6936523E1,1.4591799E0,2.888331E0,2.6084274E1,8.231176E0,4.4547424E1,1.3834839E1,8.0207825E-2,0E0,0E0,0E0,0E0,0E0,0E0,0E0,0E0,0E0,0E0,0E0,0E0,0E0,0E0,0E0,0E0,0E0,0E0,0E0,0E0,0E0,0E0,0E0,0E0,0E0],"parents":[2147483647,0,0,1,1,2,2,3,3,4,4,5,5,6,6,7,7,9,9,10,10,11,11,12,12,13,13,14,14,15,15,16,16,17,17,19,19,20,20,21,21,22,22,23,23,24,24,25,25,26,26,27,27],"right_children":[2,4,6,8,10,12,14,16,-1,18,20,22,24,26,28,30,32,34,-1,36,38,40,42,44,46,48,50,52,-1,-1,-1,-1,-1,-1,-1,-1,-1,-1,-1,-1,-1,-1,-1,-1,-1,-1,-1,-1,-1,-1,-1,-1,-1],"split_conditions":[-9.397475E-1,1.9466068E-1,-1.2299162E0,1.5935521E0,1E0,1E0,1E0,-1.1994398E0,-1.4475514E-2,1E0,-1.1994398E0,-1.256092E0,1E0,-3.2133916E-1,1E0,5.1367587E-1,1E0,8.90097E-1,2.4441798E-1,1E0,3.7060206E0,-1.2791638E0,1.6775591E0,1E0,-1.2791638E0,-5.1047983E0,3.967457E-1,1E0,2.691163E-2,1.8759653E-1,1.26053635E-2,2.1987835E-1,5.6830067E-2,1.1029124E-2,7.9556786E-2,1.15581684E-1,1.0610822E-2,1.6835289E-1,6.0718067E-2,2.245973E-2,-7.394055E-2,-5.6672722E-2,8.0312125E-2,1.1364752E-1,2.7004156E-2,8.648777E-2,-3.329192E-2,1.401401E-1,-3.2941118E-2,-7.493532E-2,-5.41632E-2,2.2234099E-1,8.662247E-2],"split_indices":[8,2,6,1,42,33,52,4,0,44,4,7,59,6,30,1,15,6,0,15,3,7,3,55,7,2,8,10,0,0,0,0,0,0,0,0,0,0,0,0,0,0,0,0,0,0,0,0,0,0,0,0,0],"split_type":[0,0,0,0,0,0,0,0,0,0,0,0,0,0,0,0,0,0,0,0,0,0,0,0,0,0,0,0,0,0,0,0,0,0,0,0,0,0,0,0,0,0,0,0,0,0,0,0,0,0,0,0,0],"sum_hessian":[3.2548608E3,6.4628845E2,2.6085725E3,2.0213371E2,4.4415475E2,2.6051404E2,2.3480583E3,2.0107683E2,1.0568942E0,5.5663532E1,3.8849124E2,2.8427477E1,2.3208655E2,2.337333E3,1.0725402E1,8.24365E1,1.1864032E2,5.314857E1,2.5149612E0,2.5009648E2,1.3839476E2,2.408176E1,4.345716E0,1.8961104E2,4.247551E1,9.046131E2,1.4327198E3,9.641415E0,1.0839878E0,7.9810616E1,2.6258836E0,1.1741286E2,1.2274698E0,2.7235645E1,2.5912926E1,2.403789E2,9.7175665E0,1.2006514E2,1.8329617E1,1.2456764E0,2.2836084E1,2.720167E0,1.625549E0,1.4280156E2,4.6809483E1,5.789735E0,3.6685776E1,1.4153868E1,8.904592E2,5.1151093E2,9.212089E2,7.771432E0,1.8699824E0],"tree_param":{"num_deleted":"0","num_feature":"62","num_nodes":"53","size_leaf_vector":"1"}},{"base_weights":[-1.2559472E-2,1.2174207E0,-3.5031796E-1,1.0091366E0,1.7342527E0,5.029509E-1,-4.5288956E-1,1.109923E0,6.3390744E-1,1.7492304E0,4.0490246E-1,1.4316263E0,3.4562278E-1,-4.6437395E-1,1.6279134E0,1.3987854E0,9.8182386E-1,7.170583E-1,-3.6985645E-1,1.619039E0,2.038414E0,-3.4792643E-2,9.764438E-2,1.4782261E0,-1.3567844E-2,1.2564996E0,1.1378004E-1,-6.510421E-1,-3.3908242E-1,1.7862794E0,3.5256423E-2,1.4872049E-1,4.940986E-2,8.269557E-2,1.2748346E-1,1.1656016E-1,4.4013005E-2,1.196304E-2,-9.507322E-2,9.236789E-2,1.6924043E-1,2.1334068E-1,1.3449118E-1,1.3190416E-1,2.2226933E-1,1.4951317E-1,4.272462E-2,1.09041505E-1,-1.1661199E-2,-5.6199975E-2,-7.1701065E-2,4.01812E-3,-4.0970292E-2,1.9173355E-1,2.6628343E-2],"categories":[],"categories_nodes":[],"categories_segments":[],"categories_sizes":[],"default_left":[0,0,0,0,0,0,0,0,0,0,0,0,0,0,0,0,0,0,0,0,0,0,0,0,0,0,0,0,0,0,0,0,0,0,0,0,0,0,0,0,0,0,0,0,0,0,0,0,0,0,0,0,0,0,0],"id":4,"left_children":[1,3,5,7,9,11,13,15,17,19,21,23,25,27,29,31,33,35,37,39,41,-1,-1,43,-1,45,47,49,51,53,-1,-1,-1,-1,-1,-1,-1,-1,-1,-1,-1,-1,-1,-1,-1,-1,-1,-1,-1,-1,-1,-1,-1,-1,-1],"loss_changes":[1.3390146E3,7.300159E1,2.215441E2,1.8104736E1,3.2354126E0,3.922162E1,5.4712067E1,1.3083832E1,9.248631E0,4.062561E0,1.8491228E0,3.0534744E0,4.9224594E1,5.231491E1,1.9181557E0,8.678421E0,1.1380554E1,1.1875954E1,2.6425176E0,5.5643005E0,8.759308E-1,0E0,0E0,1.5735779E0,0E0,8.727028E0,4.230296E1,4.889984E0,3.607263E1,1.6759033E0,0E0,0E0,0E0,0E0,0E0,0E0,0E0,0E0,0E0,0E0,0E0,0E0,0E0,0E0,0E0,0E0,0E0,0E0,0E0,0E0,0E0,0E0,0E0,0E0,0E0],"parents":[2147483647,0,0,1,1,2,2,3,3,4,4,5,5,6,6,7,7,8,8,9,9,10,10,11,11,12,12,13,13,14,14,15,15,16,16,17,17,18,18,19,19,20,20,23,23,25,25,26,26,27,27,28,28,29,29],"right_children":[2,4,6,8,10,12,14,16,18,20,22,24,26,28,30,32,34,36,38,40,42,-1,-1,44,-1,46,48,50,52,54,-1,-1,-1,-1,-1,-1,-1,-1,-1,-1,-1,-1,-1,-1,-1,-1,-1,-1,-1,-1,-1,-1,-1,-1,-1],"split_conditions":[-9.397475E-1,1E0,-1.2299162E0,1E0,1E0,-1.1807598E0,1E0,-1.6627346E0,1.5335697E0,1.1482314E0,3.7060206E0,2.3134696E0,-1.2791638E0,1E0,8.607562E-1,5.1367587E-1,-1.1994398E0,4.7907403E-1,1.6775591E0,-2.0682695E0,1E0,-3.4792643E-2,9.764438E-2,1E0,-1.3567844E-2,1.1482314E0,-8.6409485E-1,1E0,-1.3403045E0,1E0,3.5256423E-2,1.4872049E-1,4.940986E-2,8.269557E-2,1.2748346E-1,1.1656016E-1,4.4013005E-2,1.196304E-2,-9.507322E-2,9.236789E-2,1.6924043E-1,2.1334068E-1,1.3449118E-1,1.3190416E-1,2.2226933E-1,1.4951317E-1,4.272462E-2,1.09041505E-1,-1.1661199E-2,-5.6199975E-2,-7.1701065E-2,4.01812E-3,-4.0970292E-2,1.9173355E-1,2.6628343E-2],"split_indices":[8,61,6,55,20,5,52,7,5,0,3,1,7,42,0,1,4,6,3,5,52,0,0,58,0,0,0,50,7,27,0,0,0,0,0,0,0,0,0,0,0,0,0,0,0,0,0,0,0,0,0,0,0,0,0],"split_type":[0,0,0,0,0,0,0,0,0,0,0,0,0,0,0,0,0,0,0,0,0,0,0,0,0,0,0,0,0,0,0,0,0,0,0,0,0,0,0,0,0,0,0,0,0,0,0,0,0,0,0,0,0,0,0],"sum_hessian":[3.2211265E3,6.934084E2,2.5277183E3,4.963364E2,1.9707198E2,2.708315E2,2.2568867E3,3.8970395E2,1.06632454E2,1.94564E2,2.507988E0,3.8061672E1,2.3276984E2,2.2452715E3,1.1615286E1,1.16677574E2,2.7302637E2,9.873866E1,7.8937917E0,1.3871349E2,5.585051E1,1.2511863E0,1.2568018E0,3.7017876E1,1.0437968E0,4.632925E1,1.864406E2,9.0007684E2,1.3451945E3,9.975911E0,1.6393749E0,1.05702835E2,1.0974742E1,1.8111955E2,9.190684E1,3.6465736E1,6.2272926E1,4.7148113E0,3.1789804E0,1.4535472E1,1.2417801E2,4.7295864E1,8.5546465E0,3.278044E1,4.2374363E0,3.5352867E1,1.0976381E1,3.487445E1,1.5156615E2,3.8709982E2,5.1297705E2,2.1122935E2,1.1339652E3,8.943391E0,1.0325197E0],"tree_param":{"num_deleted":"0","num_feature":"62","num_nodes":"55","size_leaf_vector":"1"}},{"base_weights":[-1.257482E-2,1.0374681E0,-3.2589018E-1,1.4689218E0,8.4628826E-1,4.400128E-1,-4.2422998E-1,1.5433986E0,1.1262236E0,3.6871898E-1,9.1192245E-1,-5.563063E-1,5.498118E-1,-3.1997207E-1,-6.312057E-1,1.5614281E0,7.614017E-1,1.3747588E0,7.160219E-1,2.608241E-1,1.9379625E-1,1.0115519E0,6.6930807E-1,-9.052798E-3,-6.5753883E-1,6.957516E-1,-1.6498666E-1,-3.3571014E-1,1.4078376E0,-7.6287854E-1,-5.44091E-1,1.2987976E-1,1.6317171E-1,3.184785E-2,1.3946517E-1,6.370255E-3,1.4757732E-1,1.0304047E-1,4.3814634E-3,4.8618864E-2,-1.1728946E-2,1.1694471E-1,7.442836E-2,8.0462575E-2,1.963056E-2,-6.0152363E-2,9.9324174E-2,-7.6416135E-2,-6.9860243E-3,8.380074E-2,7.2490135E-3,-2.728059E-2,1.1836286E-1,9.5671296E-2,-3.5470705E-2,1.5142484E-1,1.6659433E-2,-8.125451E-2,-5.6929737E-2,-5.529015E-2,3.474709E-2],"categories":[],"categories_nodes":[],"categories_segments":[],"categories_sizes":[],"default_left":[0,0,0,0,0,0,0,0,0,0,0,0,0,0,0,0,0,0,0,0,0,0,0,0,0,0,0,0,0,0,0,0,0,0,0,0,0,0,0,0,0,0,0,0,0,0,0,0,0,0,0,0,0,0,0,0,0,0,0,0,0],"id":5,"left_children":[1,3,5,7,9,11,13,15,17,19,21,23,25,27,29,31,33,35,37,39,-1,41,43,45,47,49,51,53,55,57,59,-1,-1,-1,-1,-1,-1,-1,-1,-1,-1,-1,-1,-1,-1,-1,-1,-1,-1,-1,-1,-1,-1,-1,-1,-1,-1,-1,-1,-1,-1],"loss_changes":[1.0480455E3,5.9143433E1,1.8497995E2,3.964447E0,1.5639038E1,3.089988E1,4.672809E1,1.3608398E0,3.4593925E0,1.0205313E1,1.0137329E1,1.5595455E0,2.6445358E1,3.9855896E1,7.929779E0,1.1262207E0,1.2463458E0,3.356659E0,3.8712683E0,5.199307E0,0E0,1.2431366E1,8.367397E0,3.8191214E0,1.4399796E0,1.8540932E1,6.6632915E0,3.5597336E1,1.4998913E0,2.298523E0,3.6586914E0,0E0,0E0,0E0,0E0,0E0,0E0,0E0,0E0,0E0,0E0,0E0,0E0,0E0,0E0,0E0,0E0,0E0,0E0,0E0,0E0,0E0,0E0,0E0,0E0,0E0,0E0,0E0,0E0,0E0,0E0],"parents":[2147483647,0,0,1,1,2,2,3,3,4,4,5,5,6,6,7,7,8,8,9,9,10,10,11,11,12,12,13,13,14,14,15,15,16,16,17,17,18,18,19,19,21,21,22,22,23,23,24,24,25,25,26,26,27,27,28,28,29,29,30,30],"right_children":[2,4,6,8,10,12,14,16,18,20,22,24,26,28,30,32,34,36,38,40,-1,42,44,46,48,50,52,54,56,58,60,-1,-1,-1,-1,-1,-1,-1,-1,-1,-1,-1,-1,-1,-1,-1,-1,-1,-1,-1,-1,-1,-1,-1,-1,-1,-1,-1,-1,-1,-1],"split_conditions":[-9.397475E-1,-5.0833216E0,-1.2299162E0,1E0,1E0,1E0,7.203069E-1,2.0550249E0,1.2794873E0,1E0,1E0,1E0,1E0,1E0,7.125202E-1,-1.9128691E0,1E0,1E0,1E0,-1.1357449E0,1.9379625E-1,1.9717364E0,-1.5681398E0,1E0,-1.256092E0,1E0,1E0,-5.099429E0,1E0,1E0,1E0,1.2987976E-1,1.6317171E-1,3.184785E-2,1.3946517E-1,6.370255E-3,1.4757732E-1,1.0304047E-1,4.3814634E-3,4.8618864E-2,-1.1728946E-2,1.1694471E-1,7.442836E-2,8.0462575E-2,1.963056E-2,-6.0152363E-2,9.9324174E-2,-7.6416135E-2,-6.9860243E-3,8.380074E-2,7.2490135E-3,-2.728059E-2,1.1836286E-1,9.5671296E-2,-3.5470705E-2,1.5142484E-1,1.6659433E-2,-8.125451E-2,-5.6929737E-2,-5.529015E-2,3.474709E-2],"split_indices":[8,2,6,55,42,33,5,5,6,44,59,39,59,52,7,5,18,42,23,4,0,6,7,31,7,54,14,2,30,23,17,0,0,0,0,0,0,0,0,0,0,0,0,0,0,0,0,0,0,0,0,0,0,0,0,0,0,0,0,0,0],"split_type":[0,0,0,0,0,0,0,0,0,0,0,0,0,0,0,0,0,0,0,0,0,0,0,0,0,0,0,0,0,0,0,0,0,0,0,0,0,0,0,0,0,0,0,0,0,0,0,0,0,0,0,0,0,0,0,0,0,0,0,0,0],"sum_hessian":[3.1835737E3,7.310906E2,2.4524832E3,2.2242938E2,5.0866122E2,2.7866595E2,2.1738171E3,1.7984167E2,4.2587704E1,6.2260128E1,4.464011E2,2.725815E1,2.5140779E2,1.447319E3,7.264982E2,1.7481448E2,5.0271883E0,2.5055508E1,1.7532196E1,5.934595E1,2.9141788E0,3.1420404E2,1.3219704E2,4.4252253E0,2.2832924E1,2.0880325E2,4.260454E1,1.4350532E3,1.2265746E1,2.8618137E2,4.4031686E2,4.1020786E1,1.337937E2,3.8424997E0,1.1846888E0,1.9090253E0,2.3146482E1,1.1582393E1,5.9498043E0,3.700455E1,2.23414E1,1.9539445E2,1.18809586E2,1.0224535E2,2.9951689E1,3.032515E0,1.3927102E0,1.9072329E1,3.7605968E0,1.697209E2,3.908235E1,4.0189205E1,2.4153366E0,2.0072763E1,1.4149805E3,1.1094666E1,1.1710813E0,2.2520396E2,6.0977398E1,4.3638434E2,3.9325364E0],"tree_param":{"num_deleted":"0","num_feature":"62","num_nodes":"61","size_leaf_vector":"1"}},{"base_weights":[-1.230286E-2,8.9825594E-1,-3.0271596E-1,1.2845405E0,7.293368E-1,9.722789E-2,-4.6632117E-1,1.2943962E0,-2.848787E-2,8.068352E-1,4.33995E-1,-1.7454308E-1,4.423062E-1,-4.7995457E-1,1.227739E0,1.3584794E0,1.0006016E0,1.0421395E0,7.0296425E-1,4.9672255E-1,-3.739891E-1,4.2267326E-2,-3.742795E-1,1.1675619E0,2.563632E-1,-6.6125536E-1,-4.1749918E-1,1.356719E0,2.334538E-2,1.4194189E-1,1.0856495E-1,1.2220507E-1,6.345219E-2,1.0767012E-1,-4.0576026E-2,5.053136E-3,7.4872546E-2,8.243667E-2,2.792718E-2,2.6288123E-3,-9.087937E-2,1.5732326E-2,-8.676842E-2,-4.1457918E-2,7.872513E-2,-4.4809785E-2,1.2262175E-1,9.533905E-2,6.564937E-3,-7.350987E-2,-5.330761E-2,-3.2398723E-2,-5.071302E-2,1.4620245E-1,1.6670834E-2],"categories":[],"categories_nodes":[],"categories_segments":[],"categories_sizes":[],"default_left":[0,0,0,0,0,0,0,0,0,0,0,0,0,0,0,0,0,0,0,0,0,0,0,0,0,0,0,0,0,0,0,0,0,0,0,0,0,0,0,0,0,0,0,0,0,0,0,0,0,0,0,0,0,0,0],"id":6,"left_children":[1,3,5,7,9,11,13,15,-1,17,19,21,23,25,27,29,31,33,35,37,39,41,43,45,47,49,51,53,-1,-1,-1,-1,-1,-1,-1,-1,-1,-1,-1,-1,-1,-1,-1,-1,-1,-1,-1,-1,-1,-1,-1,-1,-1,-1,-1],"loss_changes":[8.317866E2,4.8694885E1,1.5609155E2,3.927948E0,1.1815613E1,6.508449E1,3.9682495E1,2.9493103E0,0E0,9.529724E0,5.8950043E0,1.6839445E1,4.0923576E1,1.8745392E1,1.4523029E0,1.5361023E0,2.8543854E0,6.767807E0,8.750748E0,7.247843E0,1.8832403E0,1.9733648E1,9.796349E0,6.43425E0,3.2450542E1,3.6658936E0,1.0330734E1,1.2603703E0,0E0,0E0,0E0,0E0,0E0,0E0,0E0,0E0,0E0,0E0,0E0,0E0,0E0,0E0,0E0,0E0,0E0,0E0,0E0,0E0,0E0,0E0,0E0,0E0,0E0,0E0,0E0],"parents":[2147483647,0,0,1,1,2,2,3,3,4,4,5,5,6,6,7,7,9,9,10,10,11,11,12,12,13,13,14,14,15,15,16,16,17,17,18,18,19,19,20,20,21,21,22,22,23,23,24,24,25,25,26,26,27,27],"right_children":[2,4,6,8,10,12,14,16,-1,18,20,22,24,26,28,30,32,34,36,38,40,42,44,46,48,50,52,54,-1,-1,-1,-1,-1,-1,-1,-1,-1,-1,-1,-1,-1,-1,-1,-1,-1,-1,-1,-1,-1,-1,-1,-1,-1,-1,-1],"split_conditions":[-9.397475E-1,-5.0833216E0,-1.1662817E-1,1.5935521E0,1E0,-1.3085806E0,1E0,1E0,-2.848787E-2,-1.6627346E0,1.5335697E0,-1.3449188E0,-1.0598928E0,3.967457E-1,8.607562E-1,-1.9846171E0,1.2794873E0,5.734482E0,-1.6581203E0,4.7907403E-1,1.6775591E0,1.2335933E0,1E0,1E0,-1.2791638E0,7.125202E-1,-9.7494364E-2,1E0,2.334538E-2,1.4194189E-1,1.0856495E-1,1.2220507E-1,6.345219E-2,1.0767012E-1,-4.0576026E-2,5.053136E-3,7.4872546E-2,8.243667E-2,2.792718E-2,2.6288123E-3,-9.087937E-2,1.5732326E-2,-8.676842E-2,-4.1457918E-2,7.872513E-2,-4.4809785E-2,1.2262175E-1,9.533905E-2,6.564937E-3,-7.350987E-2,-5.330761E-2,-3.2398723E-2,-5.071302E-2,1.4620245E-1,1.6670834E-2],"split_indices":[8,2,4,1,55,7,52,55,0,7,5,7,5,8,0,8,6,3,7,6,3,1,61,33,7,7,0,27,0,0,0,0,0,0,0,0,0,0,0,0,0,0,0,0,0,0,0,0,0,0,0,0,0,0,0],"split_type":[0,0,0,0,0,0,0,0,0,0,0,0,0,0,0,0,0,0,0,0,0,0,0,0,0,0,0,0,0,0,0,0,0,0,0,0,0,0,0,0,0,0,0,0,0,0,0,0,0,0,0,0,0,0,0],"sum_hessian":[3.1434578E3,7.5962933E2,2.3838286E3,2.2910568E2,5.305236E2,6.9217255E2,1.691656E3,2.2785007E2,1.2556193E0,4.1887735E2,1.1164628E2,3.8749216E2,3.0468036E2,1.6788616E3,1.2794384E1,1.8407521E2,4.3774857E1,1.2551302E2,2.9336432E2,1.0396057E2,7.6857066E0,1.8618259E2,2.0130959E2,6.109705E1,2.4358331E2,4.2770248E2,1.251159E3,1.1002595E1,1.7917887E0,1.4703152E2,3.704368E1,2.5818506E1,1.795635E1,1.2283725E2,2.6757755E0,1.9365677E1,2.7399866E2,4.035882E1,6.3601753E1,4.9395328E0,2.7461736E0,1.6601807E2,2.016452E1,1.951808E2,6.128784E0,1.9077885E0,5.9189262E1,5.1469997E1,1.9211331E2,2.6836432E2,1.5933817E2,6.145815E2,6.365776E2,9.898117E0,1.1044773E0],"tree_param":{"num_deleted":"0","num_feature":"62","num_nodes":"55","size_leaf_vector":"1"}},{"base_weights":[-1.2104648E-2,7.83664E-1,-2.8087243E-1,6.388024E-1,1.1590936E0,8.6568736E-2,-4.377399E-1,2.541122E-1,6.9077146E-1,1.1958641E0,5.9623337E-1,-1.5999746E-1,3.877601E-1,-4.5084345E-1,1.0914651E0,1.6431578E-1,1.6286355E-1,5.868426E-1,8.660975E-1,1.2108368E0,6.0540545E-3,1.0419208E0,1.426011E-1,-8.766594E-2,-7.007897E-1,1.9115145E0,3.1567585E-1,-6.3181466E-1,-3.898337E-1,1.1795144E0,9.195808E-3,2.5323985E-2,-6.109355E-2,6.296896E-2,1.3726796E-2,9.766341E-2,4.4050198E-2,1.1186441E-1,1.411871E-1,-4.5474082E-2,4.99747E-2,1.5707439E-1,4.5352273E-2,-3.0505696E-2,1.4213341E-1,1.2244477E-2,-3.565953E-2,-5.527657E-2,-8.823498E-2,2.108542E-1,-2.226414E-2,8.972867E-2,1.623128E-2,-7.070592E-2,-5.034844E-2,-3.0002376E-2,-4.772426E-2,1.262534E-1,1.5746986E-2],"categories":[],"categories_nodes":[],"categories_segments":[],"categories_sizes":[],"default_left":[0,0,0,0,0,0,0,0,0,0,0,0,0,0,0,0,0,0,0,0,0,0,0,0,0,0,0,0,0,0,0,0,0,0,0,0,0,0,0,0,0,0,0,0,0,0,0,0,0,0,0,0,0,0,0,0,0,0,0],"id":7,"left_children":[1,3,5,7,9,11,13,15,17,19,21,23,25,27,29,31,-1,33,35,37,39,41,43,45,47,49,51,53,55,57,-1,-1,-1,-1,-1,-1,-1,-1,-1,-1,-1,-1,-1,-1,-1,-1,-1,-1,-1,-1,-1,-1,-1,-1,-1,-1,-1,-1,-1],"loss_changes":[6.6414856E2,4.18981E1,1.3383356E2,1.1178909E1,3.779358E0,5.169953E1,3.3092316E1,8.270655E0,8.598282E0,3.6046753E0,2.9457102E0,1.4921765E1,3.3807373E1,1.7571747E1,1.1337128E0,4.707865E0,0E0,6.0175095E0,8.220993E0,2.1316528E0,1.0291162E0,1.6404314E0,5.438586E0,1.9198654E1,7.228718E-1,6.3366356E0,2.6643208E1,3.5573578E0,9.351883E0,8.9468193E-1,0E0,0E0,0E0,0E0,0E0,0E0,0E0,0E0,0E0,0E0,0E0,0E0,0E0,0E0,0E0,0E0,0E0,0E0,0E0,0E0,0E0,0E0,0E0,0E0,0E0,0E0,0E0,0E0,0E0],"parents":[2147483647,0,0,1,1,2,2,3,3,4,4,5,5,6,6,7,7,8,8,9,9,10,10,11,11,12,12,13,13,14,14,15,15,17,17,18,18,19,19,20,20,21,21,22,22,23,23,24,24,25,25,26,26,27,27,28,28,29,29],"right_children":[2,4,6,8,10,12,14,16,18,20,22,24,26,28,30,32,-1,34,36,38,40,42,44,46,48,50,52,54,56,58,-1,-1,-1,-1,-1,-1,-1,-1,-1,-1,-1,-1,-1,-1,-1,-1,-1,-1,-1,-1,-1,-1,-1,-1,-1,-1,-1,-1,-1],"split_conditions":[-9.397475E-1,1E0,-1.1662817E-1,1E0,5.1367587E-1,-1.3085806E0,1E0,1E0,-1.1994398E0,1E0,-1.6125532E0,8.7363464E-1,-5.1047983E0,3.967457E-1,1E0,1E0,1.6286355E-1,1E0,1E0,1.1482314E0,3.7060206E0,1E0,1E0,-1.3403045E0,1E0,1E0,-1.0598928E0,7.125202E-1,-9.7494364E-2,1E0,9.195808E-3,2.5323985E-2,-6.109355E-2,6.296896E-2,1.3726796E-2,9.766341E-2,4.4050198E-2,1.1186441E-1,1.411871E-1,-4.5474082E-2,4.99747E-2,1.5707439E-1,4.5352273E-2,-3.0505696E-2,1.4213341E-1,1.2244477E-2,-3.565953E-2,-5.527657E-2,-8.823498E-2,2.108542E-1,-2.226414E-2,8.972867E-2,1.623128E-2,-7.070592E-2,-5.034844E-2,-3.0002376E-2,-4.772426E-2,1.262534E-1,1.5746986E-2],"split_indices":[8,61,4,42,1,7,52,44,4,20,7,1,2,8,30,21,0,21,55,0,3,22,57,7,36,14,5,7,0,27,0,0,0,0,0,0,0,0,0,0,0,0,0,0,0,0,0,0,0,0,0,0,0,0,0,0,0,0,0],"split_type":[0,0,0,0,0,0,0,0,0,0,0,0,0,0,0,0,0,0,0,0,0,0,0,0,0,0,0,0,0,0,0,0,0,0,0,0,0,0,0,0,0,0,0,0,0,0,0,0,0,0,0,0,0,0,0,0,0,0,0],"sum_hessian":[3.1032544E3,7.830074E2,2.3202468E3,5.6694867E2,2.1605872E2,6.943269E2,1.62592E3,6.817647E1,4.987722E2,2.0175395E2,1.4304765E1,3.820421E2,3.1228476E2,1.6128053E3,1.3114719E1,6.504657E1,3.1298938E0,3.15876E2,1.828962E2,1.9922916E2,2.5247993E0,6.56142E0,7.743345E0,3.379968E2,4.4045322E1,1.2953307E1,2.9933145E2,4.0427164E2,1.2085337E3,1.1887427E1,1.227292E0,5.8957306E1,6.0892677E0,2.88025E2,2.7851007E1,1.4415993E2,3.8736267E1,1.4109056E2,5.8138588E1,1.3467199E0,1.1780795E0,2.5763755E0,3.9850442E0,6.299469E0,1.443876E0,1.9005455E2,1.4794225E2,2.649157E1,1.7553755E1,1.1869504E1,1.083803E0,6.1447716E1,2.3788374E2,2.520035E2,1.5226816E2,5.9826624E2,6.1026746E2,1.0776742E1,1.1106853E0],"tree_param":{"num_deleted":"0","num_feature":"62","num_nodes":"59","size_leaf_vector":"1"}},{"base_weights":[-1.158669E-2,6.900066E-1,-2.6008365E-1,5.589284E-1,1.036426E0,7.72006E-2,-4.1002625E-1,2.2750844E-1,6.0289496E-1,1.0981125E0,7.6152354E-1,-1.4672363E-1,3.415336E-1,-4.225634E-1,9.7506875E-1,1.4544009E-1,1.4761707E-1,5.1239914E-1,7.5541574E-1,9.9268353E-1,1.324607E0,-5.55921E-2,8.1952834E-1,-7.9788804E-2,-6.71599E-1,-5.657995E-1,4.2931923E-1,-5.3574747E-1,-3.2581785E-1,1.0914409E0,1.4163382E-2,9.107556E-3,1.3575716E-1,5.3711593E-2,-1.2858951E-2,6.62893E-2,1.2097827E-1,4.2382725E-2,1.0516199E-1,1.4846215E-1,8.022709E-2,9.376991E-2,3.1505182E-2,2.1554802E-2,-2.4559079E-2,-7.1199186E-2,-1.5226448E-2,-3.5234932E-3,-6.631746E-2,3.324136E-2,1.2505564E-1,-8.183722E-3,-5.5556554E-2,-2.0575894E-2,-4.044934E-2,1.20285444E-1,1.51341455E-2],"categories":[],"categories_nodes":[],"categories_segments":[],"categories_sizes":[],"default_left":[0,0,0,0,0,0,0,0,0,0,0,0,0,0,0,0,0,0,0,0,0,0,0,0,0,0,0,0,0,0,0,0,0,0,0,0,0,0,0,0,0,0,0,0,0,0,0,0,0,0,0,0,0,0,0,0,0],"id":8,"left_children":[1,3,5,7,9,11,13,15,17,19,21,23,25,27,29,31,-1,33,35,37,39,-1,41,43,45,47,49,51,53,55,-1,-1,-1,-1,-1,-1,-1,-1,-1,-1,-1,-1,-1,-1,-1,-1,-1,-1,-1,-1,-1,-1,-1,-1,-1,-1,-1],"loss_changes":[5.343807E2,3.582361E1,1.1449843E2,8.369385E0,2.8758087E0,4.13291E1,2.7623077E1,6.956642E0,6.7184753E0,2.9002228E0,3.7706318E0,1.3235386E1,2.574213E1,1.683783E1,1.2380457E0,4.276583E0,0E0,5.237213E0,7.1685486E0,3.7264023E0,3.2452087E0,0E0,2.205696E0,1.653573E1,7.8619957E-1,1.4579763E0,2.2859386E1,6.381317E0,7.8530273E0,1.1220036E0,0E0,0E0,0E0,0E0,0E0,0E0,0E0,0E0,0E0,0E0,0E0,0E0,0E0,0E0,0E0,0E0,0E0,0E0,0E0,0E0,0E0,0E0,0E0,0E0,0E0,0E0,0E0],"parents":[2147483647,0,0,1,1,2,2,3,3,4,4,5,5,6,6,7,7,8,8,9,9,10,10,11,11,12,12,13,13,14,14,15,15,17,17,18,18,19,19,20,20,22,22,23,23,24,24,25,25,26,26,27,27,28,28,29,29],"right_children":[2,4,6,8,10,12,14,16,18,20,22,24,26,28,30,32,-1,34,36,38,40,-1,42,44,46,48,50,52,54,56,-1,-1,-1,-1,-1,-1,-1,-1,-1,-1,-1,-1,-1,-1,-1,-1,-1,-1,-1,-1,-1,-1,-1,-1,-1,-1,-1],"split_conditions":[-9.397475E-1,1E0,-1.1662817E-1,1E0,1E0,-1.3085806E0,1E0,1E0,-1.1994398E0,1.1482314E0,-1.6306953E0,8.7363464E-1,1E0,1E0,8.607562E-1,3.352208E0,1.4761707E-1,1E0,1E0,-2.0682695E0,1E0,-5.55921E-2,1.5371713E-1,-1.3506868E0,1E0,1E0,1.6273568E0,2.9727206E-1,-3.8496953E-1,8.203814E-1,1.4163382E-2,9.107556E-3,1.3575716E-1,5.3711593E-2,-1.2858951E-2,6.62893E-2,1.2097827E-1,4.2382725E-2,1.0516199E-1,1.4846215E-1,8.022709E-2,9.376991E-2,3.1505182E-2,2.1554802E-2,-2.4559079E-2,-7.1199186E-2,-1.5226448E-2,-3.5234932E-3,-6.631746E-2,3.324136E-2,1.2505564E-1,-8.183722E-3,-5.5556554E-2,-2.0575894E-2,-4.044934E-2,1.20285444E-1,1.51341455E-2],"split_indices":[8,61,4,42,55,7,52,44,4,0,0,1,33,42,0,0,0,15,47,5,56,0,1,7,25,39,0,5,0,7,0,0,0,0,0,0,0,0,0,0,0,0,0,0,0,0,0,0,0,0,0,0,0,0,0,0,0],"split_type":[0,0,0,0,0,0,0,0,0,0,0,0,0,0,0,0,0,0,0,0,0,0,0,0,0,0,0,0,0,0,0,0,0,0,0,0,0,0,0,0,0,0,0,0,0,0,0,0,0,0,0,0,0,0,0,0,0],"sum_hessian":[3.0630679E3,8.006835E2,2.2623845E3,5.8278326E2,2.1790022E2,6.963913E2,1.5659932E3,6.898088E1,5.1380237E2,1.7552E2,4.2380222E1,3.7725363E2,3.1913766E2,1.5526344E3,1.3358704E1,6.577434E1,3.2065432E0,3.2520593E2,1.8859644E2,1.2344259E2,5.207741E1,1.4252368E0,4.0954987E1,3.3560727E2,4.164637E1,2.7672762E1,2.914649E2,7.1343646E2,8.39198E2,1.1450329E1,1.9083742E0,6.397995E1,1.7943861E0,3.1328748E2,1.1918461E1,1.5873265E2,2.9863787E1,1.2357628E1,1.1108496E2,3.845476E1,1.3622651E1,3.248646E1,8.468522E0,1.2055938E2,2.150479E2,3.829675E1,3.3496184E0,4.502422E0,2.317034E1,2.6195868E2,2.9506237E1,3.0060595E1,6.8337585E2,3.3365518E2,5.055428E2,9.987222E0,1.4631069E0],"tree_param":{"num_deleted":"0","num_feature":"62","num_nodes":"57","size_leaf_vector":"1"}},{"base_weights":[-1.094932E-2,6.113553E-1,-2.404306E-1,9.185656E-1,4.849814E-1,6.9043405E-2,-3.8306233E-1,9.789811E-1,6.6088754E-1,5.426632E-1,2.6141346E-1,1.1582392E0,2.1719933E-2,-3.9500457E-1,8.790552E-1,1.0199739E0,6.6225225E-1,8.798783E-1,3.8183597E-1,5.5976486E-1,-3.4006017E-1,3.1365293E-1,-4.2890078E-1,-3.8195476E-1,1.3357131E0,-1.6781634E-1,2.4114913E-1,-3.3650625E-1,-5.7543206E-1,9.827665E-1,1.3172637E-2,7.814883E-2,1.1071553E-1,3.1240696E-2,8.8840574E-2,4.2557266E-2,1.23632684E-1,4.79902E-2,-4.1663248E-2,7.611702E-2,4.7155593E-2,-8.147411E-2,4.7849804E-2,5.7426404E-2,1.3845453E-2,-5.6730327E-3,-9.186791E-2,-6.8056226E-2,2.8790187E-3,1.4505945E-1,-3.8638134E-2,7.6686253E-4,-3.3996288E-2,1.07282415E-1,1.4748876E-2,-2.5293693E-2,-4.198381E-2,-6.557627E-2,-4.411531E-2,1.0808753E-1,1.4219438E-2],"categories":[],"categories_nodes":[],"categories_segments":[],"categories_sizes":[],"default_left":[0,0,0,0,0,0,0,0,0,0,0,0,0,0,0,0,0,0,0,0,0,0,0,0,0,0,0,0,0,0,0,0,0,0,0,0,0,0,0,0,0,0,0,0,0,0,0,0,0,0,0,0,0,0,0,0,0,0,0,0,0],"id":9,"left_children":[1,3,5,7,9,11,13,15,17,19,21,23,25,27,29,31,33,35,37,39,41,43,45,47,49,51,53,55,57,59,-1,-1,-1,-1,-1,-1,-1,-1,-1,-1,-1,-1,-1,-1,-1,-1,-1,-1,-1,-1,-1,-1,-1,-1,-1,-1,-1,-1,-1,-1,-1],"loss_changes":[4.321127E2,3.1203491E1,9.760469E1,3.0345154E0,7.3341064E0,3.5966244E1,2.3157288E1,1.78479E0,2.5968666E0,7.1329346E0,4.4916754E0,8.452366E0,2.7914055E1,1.5636917E1,9.9402046E-1,2.5845947E0,1.6660709E0,3.7042217E0,1.99067E0,7.662903E0,4.027733E0,5.0754633E0,1.5742978E0,4.8318374E-1,5.7588196E0,1.0883478E1,2.4068499E1,7.7982483E0,3.6566544E0,8.83255E-1,0E0,0E0,0E0,0E0,0E0,0E0,0E0,0E0,0E0,0E0,0E0,0E0,0E0,0E0,0E0,0E0,0E0,0E0,0E0,0E0,0E0,0E0,0E0,0E0,0E0,0E0,0E0,0E0,0E0,0E0,0E0],"parents":[2147483647,0,0,1,1,2,2,3,3,4,4,5,5,6,6,7,7,8,8,9,9,10,10,11,11,12,12,13,13,14,14,15,15,16,16,17,17,18,18,19,19,20,20,21,21,22,22,23,23,24,24,25,25,26,26,27,27,28,28,29,29],"right_children":[2,4,6,8,10,12,14,16,18,20,22,24,26,28,30,32,34,36,38,40,42,44,46,48,50,52,54,56,58,60,-1,-1,-1,-1,-1,-1,-1,-1,-1,-1,-1,-1,-1,-1,-1,-1,-1,-1,-1,-1,-1,-1,-1,-1,-1,-1,-1,-1,-1,-1,-1],"split_conditions":[-9.397475E-1,-5.0833216E0,-1.1357449E0,1E0,1E0,-5.1047983E0,1E0,1E0,-2.0624161E-1,5.734482E0,1.5335697E0,-1.1515701E0,-1.3085806E0,1E0,8.607562E-1,-1.602068E0,-1.6581203E0,-1.1994398E0,1E0,-1.6627346E0,1E0,4.7907403E-1,1.6775591E0,1E0,1E0,-1.3449188E0,-1.247395E0,-9.7494364E-2,7.125202E-1,8.203814E-1,1.3172637E-2,7.814883E-2,1.1071553E-1,3.1240696E-2,8.8840574E-2,4.2557266E-2,1.23632684E-1,4.79902E-2,-4.1663248E-2,7.611702E-2,4.7155593E-2,-8.147411E-2,4.7849804E-2,5.7426404E-2,1.3845453E-2,-5.6730327E-3,-9.186791E-2,-6.8056226E-2,2.8790187E-3,1.4505945E-1,-3.8638134E-2,7.6686253E-4,-3.3996288E-2,1.07282415E-1,1.4748876E-2,-2.5293693E-2,-4.198381E-2,-6.557627E-2,-4.411531E-2,1.0808753E-1,1.4219438E-2],"split_indices":[8,2,4,55,55,2,52,48,1,3,5,0,7,50,0,5,7,4,52,7,22,6,3,36,14,7,0,0,7,7,0,0,0,0,0,0,0,0,0,0,0,0,0,0,0,0,0,0,0,0,0,0,0,0,0,0,0,0,0,0,0],"split_type":[0,0,0,0,0,0,0,0,0,0,0,0,0,0,0,0,0,0,0,0,0,0,0,0,0,0,0,0,0,0,0,0,0,0,0,0,0,0,0,0,0,0,0,0,0,0,0,0,0,0,0,0,0,0,0,0,0,0,0,0,0],"sum_hessian":[3.0238164E3,8.142039E2,2.2096125E3,2.3548349E2,5.787204E2,6.9725824E2,1.5123544E3,1.8849055E2,4.699294E1,4.5889542E2,1.1982498E2,2.8055632E1,6.6920264E2,1.498859E3,1.34952755E1,1.6492476E2,2.3565802E1,2.5123617E1,2.186932E1,4.505328E2,8.362616E0,1.1190241E2,7.92257E0,2.7797346E0,2.5275898E1,3.5918488E2,3.1001776E2,1.1340437E3,3.6481534E2,1.15740385E1,1.9212372E0,4.6817917E1,1.1810684E2,1.0187608E1,1.3378195E1,1.2010173E1,1.3113445E1,1.983251E1,2.0368102E0,1.3489687E2,3.1563593E2,5.296086E0,3.0665302E0,4.4069843E1,6.783257E1,5.1358175E0,2.7867525E0,1.2292122E0,1.5505226E0,2.3842983E1,1.4329153E0,1.7834088E2,1.8084398E2,3.0321135E1,2.7969662E2,5.6822986E2,5.6581384E2,2.258312E2,1.3898413E2,1.0108346E1,1.4656929E0],"tree_param":{"num_deleted":"0","num_feature":"62","num_nodes":"61","size_leaf_vector":"1"}},{"base_weights":[-1.0357144E-2,5.4299355E-1,-2.2187606E-1,4.3298852E-1,8.4713185E-1,6.147872E-2,-3.5740554E-1,1.5013231E-1,4.7045305E-1,8.788142E-1,3.8112423E-1,1.7658812E-1,-3.0102175E-1,-3.687548E-1,7.96791E-1,7.747676E-2,1.3045248E-1,5.4158354E-1,3.2022423E-1,8.9293253E-1,-1.4483196E-1,7.861469E-1,-1.3423485E-2,2.4115852E-1,-4.6920565E-1,1.5977976E-1,-3.7344095E-1,-4.799233E-1,-2.7663586E-1,8.7643915E-1,-1.3089419E-3,1.5499989E-2,-6.2045276E-2,4.3793242E-2,7.5554125E-2,2.3860993E-2,7.5710885E-2,9.133889E-2,3.4905687E-2,-5.3097468E-2,3.3486415E-2,1.2740792E-1,2.7857563E-2,-4.1028142E-2,1.1836528E-1,1.0783155E-1,1.8980868E-2,-5.8363732E-2,1.7641969E-2,-1.3802466E-2,1.6584651E-1,-4.0728956E-2,8.063235E-2,-4.393134E-3,-5.0005604E-2,-3.5678037E-2,-1.6257837E-2,9.536083E-2,4.4602025E-3],"categories":[],"categories_nodes":[],"categories_segments":[],"categories_sizes":[],"default_left":[0,0,0,0,0,0,0,0,0,0,0,0,0,0,0,0,0,0,0,0,0,0,0,0,0,0,0,0,0,0,0,0,0,0,0,0,0,0,0,0,0,0,0,0,0,0,0,0,0,0,0,0,0,0,0,0,0,0,0],"id":10,"left_children":[1,3,5,7,9,11,13,15,17,19,21,23,25,27,29,31,-1,33,35,37,39,41,43,45,47,49,51,53,55,57,-1,-1,-1,-1,-1,-1,-1,-1,-1,-1,-1,-1,-1,-1,-1,-1,-1,-1,-1,-1,-1,-1,-1,-1,-1,-1,-1,-1,-1],"loss_changes":[3.4978558E2,2.7283539E1,8.30496E1,6.3827057E0,2.8907013E0,2.9277641E1,1.9453384E1,5.995987E0,5.5678635E0,3.0747223E0,2.5152328E0,2.2305569E1,5.704917E0,1.4706924E1,9.505806E-1,3.8539557E0,0E0,7.72348E0,6.062483E0,1.9193268E0,8.507655E-1,1.5646892E0,4.724561E0,2.0622414E1,3.7020617E0,1.0795731E1,6.178293E0,5.72995E0,7.207302E0,8.092785E-1,0E0,0E0,0E0,0E0,0E0,0E0,0E0,0E0,0E0,0E0,0E0,0E0,0E0,0E0,0E0,0E0,0E0,0E0,0E0,0E0,0E0,0E0,0E0,0E0,0E0,0E0,0E0,0E0,0E0],"parents":[2147483647,0,0,1,1,2,2,3,3,4,4,5,5,6,6,7,7,8,8,9,9,10,10,11,11,12,12,13,13,14,14,15,15,17,17,18,18,19,19,20,20,21,21,22,22,23,23,24,24,25,25,26,26,27,27,28,28,29,29],"right_children":[2,4,6,8,10,12,14,16,18,20,22,24,26,28,30,32,-1,34,36,38,40,42,44,46,48,50,52,54,56,58,-1,-1,-1,-1,-1,-1,-1,-1,-1,-1,-1,-1,-1,-1,-1,-1,-1,-1,-1,-1,-1,-1,-1,-1,-1,-1,-1,-1,-1],"split_conditions":[-9.397475E-1,1E0,-1.1662817E-1,1E0,5.1367587E-1,1E0,1E0,1E0,1.6775591E0,1E0,-1.6125532E0,8.7363464E-1,-1.3593389E0,1E0,1E0,1E0,1.3045248E-1,-1.1994398E0,1E0,-1.361646E0,3.7060206E0,1E0,1E0,-5.1047983E0,9.565813E-1,-1.367414E0,1.9148319E0,2.9727206E-1,2.9727206E-1,1E0,-1.3089419E-3,1.5499989E-2,-6.2045276E-2,4.3793242E-2,7.5554125E-2,2.3860993E-2,7.5710885E-2,9.133889E-2,3.4905687E-2,-5.3097468E-2,3.3486415E-2,1.2740792E-1,2.7857563E-2,-4.1028142E-2,1.1836528E-1,1.0783155E-1,1.8980868E-2,-5.8363732E-2,1.7641969E-2,-1.3802466E-2,1.6584651E-1,-4.0728956E-2,8.063235E-2,-4.393134E-3,-5.0005604E-2,-3.5678037E-2,-1.6257837E-2,9.536083E-2,4.4602025E-3],"split_indices":[8,61,4,42,1,59,52,44,3,20,7,1,7,42,30,21,0,4,18,7,3,22,57,2,0,7,0,5,5,27,0,0,0,0,0,0,0,0,0,0,0,0,0,0,0,0,0,0,0,0,0,0,0,0,0,0,0,0,0],"split_type":[0,0,0,0,0,0,0,0,0,0,0,0,0,0,0,0,0,0,0,0,0,0,0,0,0,0,0,0,0,0,0,0,0,0,0,0,0,0,0,0,0,0,0,0,0,0,0,0,0,0,0,0,0,0,0,0,0,0,0],"sum_hessian":[2.9864634E3,8.254505E2,2.161013E3,6.0797363E2,2.1747688E2,6.993699E2,1.4616431E3,7.16939E1,5.362797E2,2.0280312E2,1.4673767E1,5.31203E2,1.6816682E2,1.4480846E3,1.355858E1,6.845271E1,3.241186E0,3.621863E2,1.7409341E2,2.0017003E2,2.633088E0,6.7510033E0,7.9227633E0,4.8348758E2,4.7715458E1,2.2675695E1,1.4549113E2,6.5428656E2,7.93798E2,1.2269724E1,1.2888563E0,6.2309544E1,6.1431713E0,2.4603992E2,1.1614641E2,1.4799303E2,2.6100376E1,1.9225934E2,7.910685E0,1.3995717E0,1.2335165E0,2.6721222E0,4.0788813E0,6.443771E0,1.4789925E0,2.6786562E1,4.5670102E2,4.0613136E1,7.102325E0,1.967414E1,3.0015543E0,1.4206978E2,3.4213517E0,2.9019756E1,6.252668E2,4.6495856E2,3.2883945E2,1.1094138E1,1.1755857E0],"tree_param":{"num_deleted":"0","num_feature":"62","num_nodes":"59","size_leaf_vector":"1"}},{"base_weights":[-9.619857E-3,2.888803E-1,-3.3247676E-1,7.6145744E-1,1.8568921E-1,-3.43194E-1,7.22048E-1,7.723054E-1,-5.22708E-2,2.2808475E-2,3.8802132E-1,-2.8800997E-1,-5.199963E-1,8.8536566E-1,2.2866213E-1,6.3996905E-1,8.7455475E-1,6.6989064E-1,-2.5511695E-2,3.5842875E-1,7.985339E-1,-2.7296087E-1,-8.05602E-1,-6.0474056E-1,-3.813461E-1,1.002008E0,1.7962256E-2,-4.143324E-2,7.175639E-2,6.829223E-2,-1.7053181E-2,7.201506E-2,1.0635295E-1,5.5681285E-2,1.3036121E-1,1.908116E-2,-1.5334666E-2,3.88272E-2,-7.057849E-3,1.04985274E-1,8.908229E-3,-1.879097E-2,-3.5943944E-2,-8.617164E-2,1.4356077E-2,-6.724362E-2,-3.506029E-2,-3.42171E-2,-7.795342E-2,2.1119313E-2,1.1023563E-1],"categories":[],"categories_nodes":[],"categories_segments":[],"categories_sizes":[],"default_left":[0,0,0,0,0,0,0,0,0,0,0,0,0,0,0,0,0,0,0,0,0,0,0,0,0,0,0,0,0,0,0,0,0,0,0,0,0,0,0,0,0,0,0,0,0,0,0,0,0,0,0],"id":11,"left_children":[1,3,5,7,9,11,13,15,-1,17,19,21,23,25,27,29,31,33,35,37,39,41,43,45,47,49,-1,-1,-1,-1,-1,-1,-1,-1,-1,-1,-1,-1,-1,-1,-1,-1,-1,-1,-1,-1,-1,-1,-1,-1,-1],"loss_changes":[2.845529E2,7.467505E1,1.627829E1,4.229599E0,4.1534126E1,1.3556763E1,9.734168E-1,3.1309052E0,0E0,2.1886139E1,6.5426254E0,8.137238E0,3.6813126E0,6.938753E-1,1.8619857E0,4.384964E0,3.6439972E0,2.7594166E0,1.8053652E1,6.763672E0,6.500534E0,7.6119156E0,1.7109566E0,3.2898636E0,1.7456322E0,4.7278404E-1,0E0,0E0,0E0,0E0,0E0,0E0,0E0,0E0,0E0,0E0,0E0,0E0,0E0,0E0,0E0,0E0,0E0,0E0,0E0,0E0,0E0,0E0,0E0,0E0,0E0],"parents":[2147483647,0,0,1,1,2,2,3,3,4,4,5,5,6,6,7,7,9,9,10,10,11,11,12,12,13,13,14,14,15,15,16,16,17,17,18,18,19,19,20,20,21,21,22,22,23,23,24,24,25,25],"right_children":[2,4,6,8,10,12,14,16,-1,18,20,22,24,26,28,30,32,34,36,38,40,42,44,46,48,50,-1,-1,-1,-1,-1,-1,-1,-1,-1,-1,-1,-1,-1,-1,-1,-1,-1,-1,-1,-1,-1,-1,-1,-1,-1],"split_conditions":[-1.8032296E-1,1.9466068E-1,1E0,1.5935521E0,-1.165018E0,1E0,2.8580588E-1,-8.665054E-1,-5.22708E-2,-1.1807598E0,1.1019015E0,3.3933458E0,7.125202E-1,1E0,1E0,5.1367587E-1,-1.6693046E-3,1E0,-5.766197E-1,3.7060206E0,1E0,-9.7494364E-2,1E0,1E0,1.5935521E0,-1.1515701E0,1.7962256E-2,-4.143324E-2,7.175639E-2,6.829223E-2,-1.7053181E-2,7.201506E-2,1.0635295E-1,5.5681285E-2,1.3036121E-1,1.908116E-2,-1.5334666E-2,3.88272E-2,-7.057849E-3,1.04985274E-1,8.908229E-3,-1.879097E-2,-3.5943944E-2,-8.617164E-2,1.4356077E-2,-6.724362E-2,-3.506029E-2,-3.42171E-2,-7.795342E-2,2.1119313E-2,1.1023563E-1],"split_indices":[4,2,52,1,6,50,0,5,0,5,5,1,7,55,36,1,0,58,0,3,28,0,32,23,1,0,0,0,0,0,0,0,0,0,0,0,0,0,0,0,0,0,0,0,0,0,0,0,0,0,0],"split_type":[0,0,0,0,0,0,0,0,0,0,0,0,0,0,0,0,0,0,0,0,0,0,0,0,0,0,0,0,0,0,0,0,0,0,0,0,0,0,0,0,0,0,0,0,0,0,0,0,0,0,0],"sum_hessian":[2.9506292E3,1.5332006E3,1.4174286E3,2.7364197E2,1.2595586E3,1.4038358E3,1.3592771E1,2.71745E2,1.896968E0,6.984264E2,5.611322E2,1.0719001E3,3.3193567E2,9.615451E0,3.9773197E0,1.2160994E2,1.5013506E2,4.763647E1,6.507899E2,5.25149E2,3.5983223E1,1.0430991E3,2.8800951E1,2.0393011E2,1.2800555E2,7.891402E0,1.7240493E0,1.7838101E0,2.1935096E0,1.15638954E2,5.9709888E0,8.527275E1,6.4862305E1,4.2017696E1,5.618772E0,2.4154797E2,4.0924197E2,4.9108252E2,3.4066463E1,2.6216412E1,9.7668085E0,5.274893E2,5.156098E2,2.7280275E1,1.5206755E0,1.5973492E2,4.4195194E1,1.18232735E2,9.772817E0,1.2381918E0,6.6532097E0],"tree_param":{"num_deleted":"0","num_feature":"62","num_nodes":"51","size_leaf_vector":"1"}},{"base_weights":[-9.031589E-3,2.5881976E-1,-3.088561E-1,6.875934E-1,1.660297E-1,-3.1901675E-1,6.623162E-1,7.493344E-1,4.5230052E-1,2.7603367E-1,-8.1754416E-2,-4.2558402E-1,-2.3331672E-1,7.800904E-1,8.550413E-2,6.378486E-1,8.6345094E-1,6.297482E-1,1.1225571E-1,3.563223E-1,-6.400145E-3,-1.2119588E-1,6.991015E-1,-8.710486E-3,-4.4648486E-1,-3.1159332E-1,-1.23807095E-1,1.0071213E0,5.109877E-2,6.0189303E-2,-5.2779198E-2,4.9780335E-2,1.0121005E-1,5.8355212E-2,1.0952417E-1,2.0597849E-2,9.422493E-2,2.8553173E-2,-8.918172E-2,4.220956E-2,1.4978721E-2,1.6767526E-2,-3.459129E-2,4.9128155E-3,-3.1535454E-2,2.9018719E-2,1.533713E-1,-6.7718424E-2,6.256132E-2,-5.7641756E-2,-3.7967663E-2,-4.1369688E-2,-6.9159656E-3,4.8086938E-2,-1.8209869E-2,-1.1193812E-2,1.18231766E-1,-3.1228831E-2,3.9262164E-2],"categories":[],"categories_nodes":[],"categories_segments":[],"categories_sizes":[],"default_left":[0,0,0,0,0,0,0,0,0,0,0,0,0,0,0,0,0,0,0,0,0,0,0,0,0,0,0,0,0,0,0,0,0,0,0,0,0,0,0,0,0,0,0,0,0,0,0,0,0,0,0,0,0,0,0,0,0,0,0],"id":12,"left_children":[1,3,5,7,9,11,13,15,17,19,21,23,25,27,29,31,33,35,37,39,41,43,45,47,49,51,53,55,57,-1,-1,-1,-1,-1,-1,-1,-1,-1,-1,-1,-1,-1,-1,-1,-1,-1,-1,-1,-1,-1,-1,-1,-1,-1,-1,-1,-1,-1,-1],"loss_changes":[2.3446875E2,6.123736E1,1.380481E1,3.641861E0,3.4612503E1,1.2357666E1,9.2433786E-1,2.1914444E0,3.5183716E0,1.9936508E1,1.212489E1,5.2828064E0,6.460926E0,1.9331999E0,1.4567487E0,5.411148E0,6.0878525E0,4.9531183E0,4.014865E0,9.235535E0,1.161616E1,1.2350349E1,6.020509E0,1.3139685E1,4.796524E0,1.0900139E1,1.1286257E1,1.9145832E0,6.067647E-1,0E0,0E0,0E0,0E0,0E0,0E0,0E0,0E0,0E0,0E0,0E0,0E0,0E0,0E0,0E0,0E0,0E0,0E0,0E0,0E0,0E0,0E0,0E0,0E0,0E0,0E0,0E0,0E0,0E0,0E0],"parents":[2147483647,0,0,1,1,2,2,3,3,4,4,5,5,6,6,7,7,8,8,9,9,10,10,11,11,12,12,13,13,14,14,15,15,16,16,17,17,18,18,19,19,20,20,21,21,22,22,23,23,24,24,25,25,26,26,27,27,28,28],"right_children":[2,4,6,8,10,12,14,16,18,20,22,24,26,28,30,32,34,36,38,40,42,44,46,48,50,52,54,56,58,-1,-1,-1,-1,-1,-1,-1,-1,-1,-1,-1,-1,-1,-1,-1,-1,-1,-1,-1,-1,-1,-1,-1,-1,-1,-1,-1,-1,-1,-1],"split_conditions":[-1.8032296E-1,1.9466068E-1,1E0,1E0,1E0,1E0,1E0,-1.9331942E-1,1E0,1E0,-1.3085806E0,2.9727206E-1,2.9727206E-1,1E0,1E0,1E0,-8.665054E-1,1E0,1E0,1.6775591E0,1E0,-1.3449188E0,9.565813E-1,3.277958E-1,7.125202E-1,7.742376E-1,7.7019995E-1,1E0,1E0,6.0189303E-2,-5.2779198E-2,4.9780335E-2,1.0121005E-1,5.8355212E-2,1.0952417E-1,2.0597849E-2,9.422493E-2,2.8553173E-2,-8.918172E-2,4.220956E-2,1.4978721E-2,1.6767526E-2,-3.459129E-2,4.9128155E-3,-3.1535454E-2,2.9018719E-2,1.533713E-1,-6.7718424E-2,6.256132E-2,-5.7641756E-2,-3.7967663E-2,-4.1369688E-2,-6.9159656E-3,4.8086938E-2,-1.8209869E-2,-1.1193812E-2,1.18231766E-1,-3.1228831E-2,3.9262164E-2],"split_indices":[4,2,52,55,50,42,10,0,23,55,7,5,5,54,57,56,5,38,30,3,44,7,0,7,7,7,7,39,36,0,0,0,0,0,0,0,0,0,0,0,0,0,0,0,0,0,0,0,0,0,0,0,0,0,0,0,0,0,0],"split_type":[0,0,0,0,0,0,0,0,0,0,0,0,0,0,0,0,0,0,0,0,0,0,0,0,0,0,0,0,0,0,0,0,0,0,0,0,0,0,0,0,0,0,0,0,0,0,0,0,0,0,0,0,0,0,0,0,0,0,0],"sum_hessian":[2.917609E3,1.5410408E3,1.3765681E3,2.7302216E2,1.2680187E3,1.3629797E3,1.3588362E1,2.1454163E2,5.8480522E1,8.7808026E2,3.8993842E2,6.057585E2,7.572213E2,1.0991655E1,2.5967066E0,1.11854866E2,1.0268675E2,3.7867783E1,2.061274E1,6.835134E2,1.945668E2,3.7199362E2,1.7944813E1,2.8988607E1,5.7676984E2,4.405059E2,3.1671542E2,8.090494E0,2.9011607E0,1.4198234E0,1.1768832E0,8.309195E1,2.8762922E1,4.8109596E1,5.457716E1,1.6776709E1,2.1091074E1,1.818937E1,2.4233704E0,5.176263E2,1.6588719E2,1.2895497E2,6.5611824E1,1.985576E2,1.7343602E2,1.2948462E1,4.996352E0,1.4081467E1,1.490714E1,1.932662E2,3.8350366E2,3.0946494E2,1.3104094E2,2.7209862E1,2.8950555E2,1.1440421E0,6.9464526E0,1.4470603E0,1.4541004E0],"tree_param":{"num_deleted":"0","num_feature":"62","num_nodes":"59","size_leaf_vector":"1"}},{"base_weights":[-8.427457E-3,2.322078E-1,-2.8633884E-1,6.231436E-1,1.484554E-1,-2.3413818E-1,-4.6332094E-1,6.330368E-1,-5.2091893E-2,1.461789E-2,3.105612E-1,-2.458541E-1,6.0628784E-1,-5.4802644E-1,-3.300391E-1,6.8876755E-1,4.220433E-1,1.1028369E-1,-2.8026658E-1,2.845477E-1,6.708326E-1,-2.3124832E-1,-7.722531E-1,7.6129544E-1,1.6090044E-1,-6.202338E-1,-2.857601E-1,-2.906339E-1,-7.45613E-1,6.526017E-2,1.1412028E-1,1.7928625E-2,6.117327E-2,1.6521055E-2,-4.6342608E-2,5.864948E-3,-3.5934463E-2,4.5795497E-2,2.2003643E-2,8.8559344E-2,5.1685846E-3,-1.5011718E-2,-3.1513453E-2,-8.322292E-2,1.5042955E-2,1.3226139E-2,8.687455E-2,-4.085252E-2,5.9471335E-2,-6.6039495E-2,-3.680552E-2,-3.779471E-2,2.1302728E-2,-3.6845967E-2,-3.7880742E-3,-9.2787676E-2,1.052162E-2],"categories":[],"categories_nodes":[],"categories_segments":[],"categories_sizes":[],"default_left":[0,0,0,0,0,0,0,0,0,0,0,0,0,0,0,0,0,0,0,0,0,0,0,0,0,0,0,0,0,0,0,0,0,0,0,0,0,0,0,0,0,0,0,0,0,0,0,0,0,0,0,0,0,0,0,0,0],"id":13,"left_children":[1,3,5,7,9,11,13,15,-1,17,19,21,23,25,27,29,31,33,35,37,39,41,43,45,47,49,51,53,55,-1,-1,-1,-1,-1,-1,-1,-1,-1,-1,-1,-1,-1,-1,-1,-1,-1,-1,-1,-1,-1,-1,-1,-1,-1,-1,-1,-1],"loss_changes":[1.931571E2,5.0591583E1,1.2274284E1,3.4175415E0,2.7683323E1,1.0360382E1,3.254181E0,2.8950424E0,0E0,1.9780725E1,5.2175713E0,7.690716E0,8.818035E-1,3.3170967E0,1.7605906E0,2.7361221E0,2.6159458E0,1.6756548E1,4.624668E0,5.939682E0,5.023836E0,6.7402077E0,1.6306896E0,5.9636354E-1,1.4839202E0,1.213623E0,1.9974434E0,2.1877089E0,1.6202793E0,0E0,0E0,0E0,0E0,0E0,0E0,0E0,0E0,0E0,0E0,0E0,0E0,0E0,0E0,0E0,0E0,0E0,0E0,0E0,0E0,0E0,0E0,0E0,0E0,0E0,0E0,0E0,0E0],"parents":[2147483647,0,0,1,1,2,2,3,3,4,4,5,5,6,6,7,7,9,9,10,10,11,11,12,12,13,13,14,14,15,15,16,16,17,17,18,18,19,19,20,20,21,21,22,22,23,23,24,24,25,25,26,26,27,27,28,28],"right_children":[2,4,6,8,10,12,14,16,-1,18,20,22,24,26,28,30,32,34,36,38,40,42,44,46,48,50,52,54,56,-1,-1,-1,-1,-1,-1,-1,-1,-1,-1,-1,-1,-1,-1,-1,-1,-1,-1,-1,-1,-1,-1,-1,-1,-1,-1,-1,-1],"split_conditions":[-1.8032296E-1,1.9466068E-1,1E0,1.5935521E0,-1.165018E0,1E0,7.125202E-1,1E0,-5.2091893E-2,1.6775591E0,1.1019015E0,3.3933458E0,2.8580588E-1,1E0,1.5935521E0,1E0,1E0,8.7363464E-1,-1.3593389E0,-1.673117E0,1E0,-9.7494364E-2,1E0,-1.1515701E0,1E0,5.1367587E-1,1E0,1E0,7.1598095E-1,6.526017E-2,1.1412028E-1,1.7928625E-2,6.117327E-2,1.6521055E-2,-4.6342608E-2,5.864948E-3,-3.5934463E-2,4.5795497E-2,2.2003643E-2,8.8559344E-2,5.1685846E-3,-1.5011718E-2,-3.1513453E-2,-8.322292E-2,1.5042955E-2,1.3226139E-2,8.687455E-2,-4.085252E-2,5.9471335E-2,-6.6039495E-2,-3.680552E-2,-3.779471E-2,2.1302728E-2,-3.6845967E-2,-3.7880742E-3,-9.2787676E-2,1.052162E-2],"split_indices":[4,2,50,1,6,52,7,55,0,3,5,1,0,23,1,32,38,1,7,7,28,0,32,0,36,1,41,28,7,0,0,0,0,0,0,0,0,0,0,0,0,0,0,0,0,0,0,0,0,0,0,0,0,0,0,0,0],"split_type":[0,0,0,0,0,0,0,0,0,0,0,0,0,0,0,0,0,0,0,0,0,0,0,0,0,0,0,0,0,0,0,0,0,0,0,0,0,0,0,0,0,0,0,0,0,0,0,0,0,0,0,0,0,0,0,0,0],"sum_hessian":[2.886324E3,1.5469929E3,1.339331E3,2.7181E2,1.275183E3,1.0360671E3,3.032639E2,2.6992255E2,1.8874564E0,6.9909094E2,5.76092E2,1.02252026E3,1.354692E1,1.8351904E2,1.1974484E2,2.1173228E2,5.8190266E1,5.283204E2,1.7077057E2,5.3896564E2,3.7126385E1,9.963152E2,2.6205044E1,9.523263E0,4.0236573E0,1.4283008E2,4.0688972E1,1.10926056E2,8.81879E0,1.9832169E2,1.3410593E1,2.6377954E1,3.1812311E1,4.8280844E2,4.551196E1,3.235604E1,1.3841454E2,1.4448607E2,3.9447955E2,2.7245504E1,9.880878E0,5.078927E2,4.884225E2,2.4697681E1,1.5073609E0,1.7148871E0,7.808376E0,1.7650858E0,2.2585714E0,1.2181191E2,2.101816E1,3.4546314E1,6.142659E0,8.4461525E1,2.6464529E1,7.188353E0,1.6304373E0],"tree_param":{"num_deleted":"0","num_feature":"62","num_nodes":"57","size_leaf_vector":"1"}},{"base_weights":[-7.9490105E-3,2.0840068E-1,-2.65037E-1,5.7083553E-1,1.3376515E-1,-2.1549788E-1,-4.3636885E-1,4.465828E-1,6.756131E-1,2.2283839E-1,-7.3640585E-2,-2.2643866E-1,5.5638707E-1,-5.201099E-1,-3.0727437E-1,-5.085906E-1,4.7715294E-1,8.363267E-1,4.893044E-1,2.93271E-1,-2.9736549E-2,-1.1018904E-1,6.1364454E-1,-2.1262465E-1,-7.474454E-1,6.690875E-1,3.1088682E-2,-5.925919E-1,-2.6470545E-1,-2.6914838E-1,-7.233339E-1,1.2426118E-2,-1.0630583E-1,5.2392334E-2,-2.4198795E-2,4.5976155E-2,9.7259454E-2,9.8086916E-2,3.7976973E-2,3.2764703E-2,-2.0935195E-3,1.1456349E-2,-3.243726E-2,4.1608927E-3,-2.8950945E-2,3.4436572E-2,1.5764096E-1,-1.3697776E-2,-2.919825E-2,-8.098694E-2,1.4023389E-2,8.756051E-2,1.768444E-3,5.2077215E-2,-5.3384792E-2,-6.332394E-2,-3.4424603E-2,-3.5329174E-2,1.9136231E-2,-3.1797986E-2,8.323538E-3,-9.1376245E-2,9.8090675E-3],"categories":[],"categories_nodes":[],"categories_segments":[],"categories_sizes":[],"default_left":[0,0,0,0,0,0,0,0,0,0,0,0,0,0,0,0,0,0,0,0,0,0,0,0,0,0,0,0,0,0,0,0,0,0,0,0,0,0,0,0,0,0,0,0,0,0,0,0,0,0,0,0,0,0,0,0,0,0,0,0,0,0,0],"id":14,"left_children":[1,3,5,7,9,11,13,15,17,19,21,23,25,27,29,31,33,35,37,39,41,43,45,47,49,51,53,55,57,59,61,-1,-1,-1,-1,-1,-1,-1,-1,-1,-1,-1,-1,-1,-1,-1,-1,-1,-1,-1,-1,-1,-1,-1,-1,-1,-1,-1,-1,-1,-1,-1,-1],"loss_changes":[1.5904771E2,4.1927544E1,1.0996811E1,3.1463928E0,2.3828691E1,8.702759E0,2.9979858E0,3.866846E0,3.834755E0,1.6053856E1,9.813798E0,7.0535088E0,8.366294E-1,3.096325E0,1.667181E0,1.6525911E0,4.1892624E0,3.3852425E0,3.291645E0,7.625618E0,8.43743E0,1.0063306E1,4.5756416E0,5.8288994E0,1.525835E0,1.5821681E0,1.2758975E0,1.1556549E0,1.7100925E0,1.9040322E0,1.5381365E0,0E0,0E0,0E0,0E0,0E0,0E0,0E0,0E0,0E0,0E0,0E0,0E0,0E0,0E0,0E0,0E0,0E0,0E0,0E0,0E0,0E0,0E0,0E0,0E0,0E0,0E0,0E0,0E0,0E0,0E0,0E0,0E0],"parents":[2147483647,0,0,1,1,2,2,3,3,4,4,5,5,6,6,7,7,8,8,9,9,10,10,11,11,12,12,13,13,14,14,15,15,16,16,17,17,18,18,19,19,20,20,21,21,22,22,23,23,24,24,25,25,26,26,27,27,28,28,29,29,30,30],"right_children":[2,4,6,8,10,12,14,16,18,20,22,24,26,28,30,32,34,36,38,40,42,44,46,48,50,52,54,56,58,60,62,-1,-1,-1,-1,-1,-1,-1,-1,-1,-1,-1,-1,-1,-1,-1,-1,-1,-1,-1,-1,-1,-1,-1,-1,-1,-1,-1,-1,-1,-1,-1,-1],"split_conditions":[-1.8032296E-1,-5.0833216E0,1E0,-8.665054E-1,1E0,1E0,7.125202E-1,-1.7265204E0,-2.0624161E-1,1E0,-1.3085806E0,3.3933458E0,1E0,1E0,1.5935521E0,-1.9000825E0,5.1367587E-1,-8.6409485E-1,-1.1515701E0,1E0,1E0,-1.3449188E0,1.6273568E0,-9.7494364E-2,1E0,1E0,1E0,5.1367587E-1,1E0,1E0,7.1598095E-1,1.2426118E-2,-1.0630583E-1,5.2392334E-2,-2.4198795E-2,4.5976155E-2,9.7259454E-2,9.8086916E-2,3.7976973E-2,3.2764703E-2,-2.0935195E-3,1.1456349E-2,-3.243726E-2,4.1608927E-3,-2.8950945E-2,3.4436572E-2,1.5764096E-1,-1.3697776E-2,-2.919825E-2,-8.098694E-2,1.4023389E-2,8.756051E-2,1.768444E-3,5.2077215E-2,-5.3384792E-2,-6.332394E-2,-3.4424603E-2,-3.5329174E-2,1.9136231E-2,-3.1797986E-2,8.323538E-3,-9.1376245E-2,9.8090675E-3],"split_indices":[4,2,50,5,50,52,7,0,1,55,7,1,10,23,1,4,1,0,0,10,44,7,0,0,32,54,57,1,41,21,7,0,0,0,0,0,0,0,0,0,0,0,0,0,0,0,0,0,0,0,0,0,0,0,0,0,0,0,0,0,0,0,0],"split_type":[0,0,0,0,0,0,0,0,0,0,0,0,0,0,0,0,0,0,0,0,0,0,0,0,0,0,0,0,0,0,0,0,0,0,0,0,0,0,0,0,0,0,0,0,0,0,0,0,0,0,0,0,0,0,0,0,0,0,0,0,0,0,0],"sum_hessian":[2.8575022E3,1.5517949E3,1.3057073E3,2.6385416E2,1.2879407E3,1.0146018E3,2.9110547E2,1.2311627E2,1.4073788E2,9.0094366E2,3.8699704E2,1.0011185E3,1.3483302E1,1.747316E2,1.1637387E2,3.3331792E0,1.1978309E2,7.368595E1,6.705193E1,7.043646E2,1.9657901E2,3.6825372E2,1.874333E1,9.7663214E2,2.4486366E1,1.0876145E1,2.6071572E0,1.3507738E2,3.9654217E1,1.0811368E2,8.260197E0,1.9188993E0,1.4142799E0,1.1272341E2,7.059679E0,2.0741741E1,5.2944214E1,1.0768896E1,5.6283035E1,6.3486395E2,6.950071E1,1.32364E2,6.421501E1,1.998473E2,1.6840642E2,1.5707683E1,3.0356476E0,5.014025E2,4.7522964E2,2.2959452E1,1.526915E0,7.9967217E0,2.8794234E0,1.4384733E0,1.1686838E0,1.14746635E2,2.0330748E1,3.3393276E1,6.2609377E0,9.504102E1,1.3072654E1,6.614389E0,1.6458073E0],"tree_param":{"num_deleted":"0","num_feature":"62","num_nodes":"63","size_leaf_vector":"1"}},{"base_weights":[-7.4436907E-3,1.87199E-1,-2.4504936E-1,5.1848143E-1,1.1977139E-1,-4.1005093E-1,-1.9820958E-1,4.0184435E-1,6.180614E-1,1.9847745E-1,-6.654938E-2,-4.924874E-1,-2.8548694E-1,-2.0839609E-1,5.094782E-1,4.567009E-1,-1.4815469E-1,7.6797986E-1,4.458838E-1,2.5948578E-1,-2.3693794E-2,-5.786168E-1,-2.028859E-2,-5.649211E-1,-2.4476932E-1,-2.4708821E-1,-7.121366E-1,-1.97407E-1,-8.2023174E-1,5.901163E-1,-1.55703565E-2,5.0406452E-2,-2.7843226E-2,-3.8261365E-2,1.09826066E-1,7.979793E-2,-6.9956E-2,2.5435194E-2,6.9353715E-2,2.2806402E-2,5.7823688E-2,1.074193E-2,-2.9923702E-2,-6.7797236E-2,7.879334E-2,1.800587E-3,-6.479453E-2,-6.058876E-2,-3.21354E-2,-6.641468E-2,-1.3668763E-2,-2.9437283E-2,8.444729E-3,-9.1974875E-3,-8.984959E-2,-1.2686054E-2,-2.724698E-2,-9.771001E-2,-2.5773188E-2,6.576572E-2,-3.8269486E-3],"categories":[],"categories_nodes":[],"categories_segments":[],"categories_sizes":[],"default_left":[0,0,0,0,0,0,0,0,0,0,0,0,0,0,0,0,0,0,0,0,0,0,0,0,0,0,0,0,0,0,0,0,0,0,0,0,0,0,0,0,0,0,0,0,0,0,0,0,0,0,0,0,0,0,0,0,0,0,0,0,0],"id":15,"left_children":[1,3,5,7,9,11,13,15,17,19,21,23,25,27,29,31,33,35,37,39,41,43,45,47,49,51,53,55,57,59,-1,-1,-1,-1,-1,-1,-1,-1,-1,-1,-1,-1,-1,-1,-1,-1,-1,-1,-1,-1,-1,-1,-1,-1,-1,-1,-1,-1,-1,-1,-1],"loss_changes":[1.309796E2,3.471349E1,9.774971E0,2.8060684E0,1.9001474E1,2.745304E0,7.2807884E0,3.8081322E0,3.27145E0,1.2348106E1,9.115078E0,2.8714905E0,1.6966228E0,6.4394646E0,8.649652E-1,4.074032E0,3.9266715E0,3.7921562E0,3.0276823E0,7.0240593E0,7.1523747E0,4.863576E0,8.529844E0,1.0927124E0,1.7093904E0,1.6927662E0,9.467106E-1,5.079899E0,1.2487984E0,5.795913E-1,0E0,0E0,0E0,0E0,0E0,0E0,0E0,0E0,0E0,0E0,0E0,0E0,0E0,0E0,0E0,0E0,0E0,0E0,0E0,0E0,0E0,0E0,0E0,0E0,0E0,0E0,0E0,0E0,0E0,0E0,0E0],"parents":[2147483647,0,0,1,1,2,2,3,3,4,4,5,5,6,6,7,7,8,8,9,9,10,10,11,11,12,12,13,13,14,14,15,15,16,16,17,17,18,18,19,19,20,20,21,21,22,22,23,23,24,24,25,25,26,26,27,27,28,28,29,29],"right_children":[2,4,6,8,10,12,14,16,18,20,22,24,26,28,30,32,34,36,38,40,42,44,46,48,50,52,54,56,58,60,-1,-1,-1,-1,-1,-1,-1,-1,-1,-1,-1,-1,-1,-1,-1,-1,-1,-1,-1,-1,-1,-1,-1,-1,-1,-1,-1,-1,-1,-1,-1],"split_conditions":[-1.1662817E-1,-5.0833216E0,3.967457E-1,-8.665054E-1,1E0,7.125202E-1,1E0,1E0,-2.0624161E-1,1E0,1E0,1E0,1E0,4.113263E0,1E0,5.1367587E-1,1E0,-1.2687815E0,1.5371713E-1,1E0,1E0,1.5315317E0,1.2335933E0,5.1367587E-1,7.113666E-1,1E0,1E0,-9.7494364E-2,1E0,1E0,-1.55703565E-2,5.0406452E-2,-2.7843226E-2,-3.8261365E-2,1.09826066E-1,7.979793E-2,-6.9956E-2,2.5435194E-2,6.9353715E-2,2.2806402E-2,5.7823688E-2,1.074193E-2,-2.9923702E-2,-6.7797236E-2,7.879334E-2,1.800587E-3,-6.479453E-2,-6.058876E-2,-3.21354E-2,-6.641468E-2,-1.3668763E-2,-2.9437283E-2,8.444729E-3,-9.1974875E-3,-8.984959E-2,-1.2686054E-2,-2.724698E-2,-9.771001E-2,-2.5773188E-2,6.576572E-2,-3.8269486E-3],"split_indices":[4,2,8,5,50,7,52,27,1,55,42,23,13,1,30,1,41,7,1,49,44,0,1,1,7,21,33,0,31,27,0,0,0,0,0,0,0,0,0,0,0,0,0,0,0,0,0,0,0,0,0,0,0,0,0,0,0,0,0,0,0],"split_type":[0,0,0,0,0,0,0,0,0,0,0,0,0,0,0,0,0,0,0,0,0,0,0,0,0,0,0,0,0,0,0,0,0,0,0,0,0,0,0,0,0,0,0,0,0,0,0,0,0,0,0,0,0,0,0,0,0,0,0,0,0],"sum_hessian":[2.8301091E3,1.5558195E3,1.2742898E3,2.6198016E2,1.2938392E3,2.8004086E2,9.942489E2,1.22975555E2,1.3900462E2,9.095569E2,3.8428235E2,1.6673915E2,1.13301704E2,9.808362E2,1.3412684E1,1.1197671E2,1.0998848E1,7.245567E1,6.654895E1,7.134698E2,1.9608714E2,3.0886583E1,3.5339575E2,1.2802397E2,3.8715183E1,1.053952E2,7.906495E0,9.648297E2,1.6006502E1,1.2063151E1,1.3495326E0,1.0549419E2,6.4825196E0,9.840764E0,1.1580837E0,7.145131E1,1.0043601E0,3.86695E1,2.7879448E1,6.5101013E2,6.245963E1,1.3327866E2,6.2808487E1,2.9262894E1,1.6236888E0,3.3398978E2,1.9406E1,1.08317986E2,1.9705982E1,6.8788977E0,3.1836287E1,9.23378E1,1.3057405E1,2.1720238E0,5.7344713E0,4.9876447E2,4.6606525E2,1.1939719E1,4.0667825E0,1.085034E1,1.2128112E0],"tree_param":{"num_deleted":"0","num_feature":"62","num_nodes":"61","size_leaf_vector":"1"}},{"base_weights":[-7.059906E-3,1.6826104E-1,-2.2613932E-1,3.4751377E-1,6.316231E-2,-3.8466355E-1,-1.819554E-1,5.822605E-1,2.726557E-1,1.3700463E-1,-2.0386025E-1,-4.6547708E-1,-2.6489645E-1,-1.6943371E-1,-7.011996E-1,7.3912936E-1,4.107805E-1,1.9829826E-1,5.544866E-1,3.2416886E-1,3.332325E-2,5.597885E-3,-3.107123E-1,-5.373098E-1,-2.2724323E-1,-2.2732171E-1,-6.913565E-1,-1.788918E-1,4.647117E-1,-8.6830354E-1,-2.3653731E-1,7.668273E-2,-3.4276318E-2,3.1982835E-2,9.4597965E-2,1.492116E-2,5.9375133E-2,6.6037826E-2,-2.8293548E-2,3.7101354E-2,-3.279116E-2,-1.0978494E-2,3.954411E-2,-1.2099907E-2,4.3725144E-2,-3.4093693E-2,6.449969E-2,-5.7841595E-2,-2.9942198E-2,-3.6727577E-2,6.324044E-3,-3.049132E-2,1.4793983E-3,-8.948808E-2,1.1062394E-2,-1.1304794E-2,-2.4990713E-2,5.674523E-2,-7.975585E-3,-9.826106E-2,1.7366694E-2,-5.9696842E-2,2.3316748E-2],"categories":[],"categories_nodes":[],"categories_segments":[],"categories_sizes":[],"default_left":[0,0,0,0,0,0,0,0,0,0,0,0,0,0,0,0,0,0,0,0,0,0,0,0,0,0,0,0,0,0,0,0,0,0,0,0,0,0,0,0,0,0,0,0,0,0,0,0,0,0,0,0,0,0,0,0,0,0,0,0,0,0,0],"id":16,"left_children":[1,3,5,7,9,11,13,15,17,19,21,23,25,27,29,31,33,35,37,39,41,43,45,47,49,51,53,55,57,59,61,-1,-1,-1,-1,-1,-1,-1,-1,-1,-1,-1,-1,-1,-1,-1,-1,-1,-1,-1,-1,-1,-1,-1,-1,-1,-1,-1,-1,-1,-1,-1,-1],"loss_changes":[1.0781129E2,2.935204E1,8.669384E0,9.964302E0,1.9432446E1,2.5003014E0,6.23777E0,3.419445E0,9.082787E0,1.4961056E1,4.7822104E0,2.6251297E0,1.630063E0,5.81678E0,1.5574102E0,2.3913612E0,3.0257206E0,6.6791306E0,8.257982E0,8.519556E0,2.5830402E1,4.049514E0,4.3060665E0,1.0257759E0,1.6065335E0,1.9581146E0,1.4931469E0,4.379431E0,8.46653E-1,2.1148367E0,1.3884889E0,0E0,0E0,0E0,0E0,0E0,0E0,0E0,0E0,0E0,0E0,0E0,0E0,0E0,0E0,0E0,0E0,0E0,0E0,0E0,0E0,0E0,0E0,0E0,0E0,0E0,0E0,0E0,0E0,0E0,0E0,0E0,0E0],"parents":[2147483647,0,0,1,1,2,2,3,3,4,4,5,5,6,6,7,7,8,8,9,9,10,10,11,11,12,12,13,13,14,14,15,15,16,16,17,17,18,18,19,19,20,20,21,21,22,22,23,23,24,24,25,25,26,26,27,27,28,28,29,29,30,30],"right_children":[2,4,6,8,10,12,14,16,18,20,22,24,26,28,30,32,34,36,38,40,42,44,46,48,50,52,54,56,58,60,62,-1,-1,-1,-1,-1,-1,-1,-1,-1,-1,-1,-1,-1,-1,-1,-1,-1,-1,-1,-1,-1,-1,-1,-1,-1,-1,-1,-1,-1,-1,-1,-1],"split_conditions":[-1.1662817E-1,-1.2562491E0,3.967457E-1,-5.1316447E0,1E0,7.125202E-1,3.3933458E0,-2.0624161E-1,1E0,-6.724447E-1,-1.3593389E0,1E0,1.5935521E0,1E0,1E0,1E0,1E0,1E0,1E0,8.7363464E-1,9.565813E-1,-1.367414E0,1.9148319E0,5.1367587E-1,-1.9331942E-1,1E0,7.1598095E-1,-9.7494364E-2,8.607562E-1,1E0,-9.7494364E-2,7.668273E-2,-3.4276318E-2,3.1982835E-2,9.4597965E-2,1.492116E-2,5.9375133E-2,6.6037826E-2,-2.8293548E-2,3.7101354E-2,-3.279116E-2,-1.0978494E-2,3.954411E-2,-1.2099907E-2,4.3725144E-2,-3.4093693E-2,6.449969E-2,-5.7841595E-2,-2.9942198E-2,-3.6727577E-2,6.324044E-3,-3.049132E-2,1.4793983E-3,-8.948808E-2,1.1062394E-2,-1.1304794E-2,-2.4990713E-2,5.674523E-2,-7.975585E-3,-9.826106E-2,1.7366694E-2,-5.9696842E-2,2.3316748E-2],"split_indices":[4,8,8,2,59,7,1,1,57,0,7,23,1,52,31,20,21,47,17,1,0,7,0,1,0,28,7,0,0,32,0,0,0,0,0,0,0,0,0,0,0,0,0,0,0,0,0,0,0,0,0,0,0,0,0,0,0,0,0,0,0,0,0],"split_type":[0,0,0,0,0,0,0,0,0,0,0,0,0,0,0,0,0,0,0,0,0,0,0,0,0,0,0,0,0,0,0,0,0,0,0,0,0,0,0,0,0,0,0,0,0,0,0,0,0,0,0,0,0,0,0,0,0,0,0,0,0,0,0],"sum_hessian":[2.8049216E3,1.5581919E3,1.2467299E3,5.750685E2,9.8312335E2,2.7006778E2,9.7666205E2,1.3740454E2,4.3766397E2,7.705286E2,2.1259476E2,1.5953448E2,1.1053331E2,9.549593E2,2.1702738E1,7.003065E1,6.737389E1,3.4764572E2,9.001825E1,2.7392188E2,4.9660672E2,7.213628E1,1.4045848E2,1.21610756E2,3.7923725E1,1.029919E2,7.5414114E0,9.4163306E2,1.3326254E1,1.5323393E1,6.3793454E0,6.856647E1,1.4641793E0,5.8952972E1,8.420923E0,3.1048346E2,3.7162262E1,8.010094E1,9.9173155E0,2.5596472E2,1.7957167E1,3.5643945E2,1.4016728E2,5.6334087E1,1.5802185E1,1.3677615E2,3.6823308E0,1.0247245E2,1.9138308E1,2.541003E1,1.2513693E1,7.779981E1,2.5192085E1,5.922561E0,1.6188502E0,4.8995215E2,4.516809E2,1.1175273E1,2.1509812E0,1.3859894E1,1.4634991E0,3.456236E0,2.9231095E0],"tree_param":{"num_deleted":"0","num_feature":"62","num_nodes":"63","size_leaf_vector":"1"}},{"base_weights":[-6.6312184E-3,1.5145838E-1,-2.0819493E-1,4.361071E-1,9.489726E-2,-1.6667394E-1,-3.5997626E-1,4.453726E-1,-5.3570677E-2,-2.9202393E-1,1.2540568E-1,-1.5679528E-1,-7.808126E-1,-3.351474E-1,-7.6436245E-1,4.6233633E-1,-1.10149674E-1,1.214229E0,-3.8811693E-1,1.4579521E-1,-4.1049248E-1,-1.6547158E-1,4.2503536E-1,-9.545877E-2,-2.2801876E-1,-4.1971096E-1,-2.0934324E-1,-8.837985E-1,1.0311934E-2,3.3744626E-2,5.7793286E-2,-4.4775642E-2,7.030678E-2,1.6228007E-1,3.8206484E-2,-1.2098739E-2,-5.655505E-2,2.0536771E-2,-2.749458E-3,-4.7893304E-2,7.369666E-2,-1.987653E-2,-3.5053554E-3,5.7200827E-2,4.471146E-3,-7.514526E-2,6.1526682E-2,-4.5578923E-2,1.935234E-2,-2.8276099E-2,1.3353125E-3,-9.4934665E-2,-2.941225E-2],"categories":[],"categories_nodes":[],"categories_segments":[],"categories_sizes":[],"default_left":[0,0,0,0,0,0,0,0,0,0,0,0,0,0,0,0,0,0,0,0,0,0,0,0,0,0,0,0,0,0,0,0,0,0,0,0,0,0,0,0,0,0,0,0,0,0,0,0,0,0,0,0,0],"id":17,"left_children":[1,3,5,7,9,11,13,15,-1,17,19,21,23,25,27,29,31,33,35,37,39,41,43,-1,45,47,49,51,-1,-1,-1,-1,-1,-1,-1,-1,-1,-1,-1,-1,-1,-1,-1,-1,-1,-1,-1,-1,-1,-1,-1,-1,-1],"loss_changes":[8.870259E1,2.5076488E1,7.651188E0,2.5647354E0,1.541505E1,5.717697E0,2.3740387E0,2.4675674E0,0E0,1.4296228E1,1.3262157E1,4.859192E0,1.2220936E0,2.5567398E0,1.5802946E0,3.4002762E0,2.6227617E0,1.4098816E0,4.223218E0,1.202932E1,3.8514552E0,4.0547123E0,7.692034E-1,0E0,2.6245613E0,3.355238E0,1.6702013E0,2.1312714E-1,0E0,0E0,0E0,0E0,0E0,0E0,0E0,0E0,0E0,0E0,0E0,0E0,0E0,0E0,0E0,0E0,0E0,0E0,0E0,0E0,0E0,0E0,0E0,0E0,0E0],"parents":[2147483647,0,0,1,1,2,2,3,3,4,4,5,5,6,6,7,7,9,9,10,10,11,11,12,12,13,13,14,14,15,15,16,16,17,17,18,18,19,19,20,20,21,21,22,22,24,24,25,25,26,26,27,27],"right_children":[2,4,6,8,10,12,14,16,-1,18,20,22,24,26,28,30,32,34,36,38,40,42,44,-1,46,48,50,52,-1,-1,-1,-1,-1,-1,-1,-1,-1,-1,-1,-1,-1,-1,-1,-1,-1,-1,-1,-1,-1,-1,-1,-1,-1],"split_conditions":[-1.8032296E-1,-5.0833216E0,1E0,1.5935521E0,1E0,4.113263E0,1.5935521E0,2.0550249E0,-5.3570677E-2,-1.6437004E0,1.2335933E0,1E0,1E0,7.125202E-1,7.1598095E-1,-8.665054E-1,1E0,1E0,-1.3403045E0,1.6775591E0,1E0,1E0,2.8580588E-1,-9.545877E-2,1.8998082E-1,8.7363464E-1,1E0,1E0,1.0311934E-2,3.3744626E-2,5.7793286E-2,-4.4775642E-2,7.030678E-2,1.6228007E-1,3.8206484E-2,-1.2098739E-2,-5.655505E-2,2.0536771E-2,-2.749458E-3,-4.7893304E-2,7.369666E-2,-1.987653E-2,-3.5053554E-3,5.7200827E-2,4.471146E-3,-7.514526E-2,6.1526682E-2,-4.5578923E-2,1.935234E-2,-2.8276099E-2,1.3353125E-3,-9.4934665E-2,-2.941225E-2],"split_indices":[4,2,50,1,33,1,1,5,0,7,1,52,31,7,7,5,18,25,7,3,48,58,0,0,0,1,28,41,0,0,0,0,0,0,0,0,0,0,0,0,0,0,0,0,0,0,0,0,0,0,0,0,0],"split_type":[0,0,0,0,0,0,0,0,0,0,0,0,0,0,0,0,0,0,0,0,0,0,0,0,0,0,0,0,0,0,0,0,0,0,0,0,0,0,0,0,0,0,0,0,0,0,0,0,0,0,0,0,0],"sum_hessian":[2.781699E3,1.5591117E3,1.2225873E3,2.5733594E2,1.3017758E3,9.616253E2,2.6096204E2,2.5544218E2,1.8937377E0,9.45156E1,1.2072601E3,9.4763745E2,1.3987819E1,2.4758914E2,1.3372915E1,2.4803578E2,7.4064026E0,4.9703083E0,8.954529E1,1.1637119E3,4.3548267E1,9.3441895E2,1.3218551E1,1.008932E1,3.8984985E0,1.4666623E2,1.00922905E2,1.1738003E1,1.6349128E0,1.21109085E2,1.269267E2,5.5512185E0,1.8551837E0,2.6963644E0,2.273944E0,3.6410492E1,5.31348E1,8.658651E2,2.978468E2,4.1646843E1,1.9014252E0,7.439707E2,1.9044823E2,9.170635E0,4.047915E0,2.4726222E0,1.4258763E0,1.3875937E2,7.9068546E0,7.569751E1,2.5225395E1,1.0014814E1,1.7231884E0],"tree_param":{"num_deleted":"0","num_feature":"62","num_nodes":"53","size_leaf_vector":"1"}},{"base_weights":[-6.200408E-3,1.3607264E-1,-1.9156152E-1,2.9084426E-1,4.5851823E-2,-1.338085E-1,-2.9160935E-1,2.4769404E-3,3.352747E-1,-3.27964E-1,8.374201E-2,-1.4349295E-1,3.8981697E-1,-3.0044252E-1,5.1354575E-1,3.0024615E-1,-3.2854518E-1,4.5740187E-1,2.0713696E-1,-3.852091E-1,8.9642465E-1,1.4076518E-1,-1.4028287E-1,-1.3043375E-1,-5.2585626E-1,4.6676794E-1,-1.946022E-2,-4.1383845E-1,-2.4174868E-1,1.1131653E0,-6.2001776E-2,5.1371623E-2,-1.7533846E-2,-5.520738E-2,1.2910122E-1,5.878448E-2,3.103109E-2,1.2748663E-2,5.5644613E-2,-9.47067E-3,-5.759662E-2,1.1145393E-2,1.4425425E-1,1.7754307E-2,-3.9672237E-2,6.211042E-3,-2.588071E-2,-1.1383855E-2,-4.586662E-2,-6.868948E-2,-1.83591E-2,5.3438228E-2,-9.2665935E-3,-4.8601422E-2,-1.747343E-2,-2.9659006E-3,-2.8984198E-2,-7.2307526E-3,1.6392444E-1],"categories":[],"categories_nodes":[],"categories_segments":[],"categories_sizes":[],"default_left":[0,0,0,0,0,0,0,0,0,0,0,0,0,0,0,0,0,0,0,0,0,0,0,0,0,0,0,0,0,0,0,0,0,0,0,0,0,0,0,0,0,0,0,0,0,0,0,0,0,0,0,0,0,0,0,0,0,0,0],"id":18,"left_children":[1,3,5,7,9,11,13,15,17,19,21,23,25,27,29,31,33,35,37,39,41,43,45,47,49,51,-1,53,55,57,-1,-1,-1,-1,-1,-1,-1,-1,-1,-1,-1,-1,-1,-1,-1,-1,-1,-1,-1,-1,-1,-1,-1,-1,-1,-1,-1,-1,-1],"loss_changes":[7.287748E1,2.1818323E1,6.894642E0,7.3735924E0,1.4034084E1,3.9234228E0,3.2717667E0,7.7721777E0,7.7098465E0,6.738471E0,1.1500021E1,3.6741524E0,7.2576046E-1,2.789898E0,4.174218E0,4.303891E0,1.4231907E1,4.7011185E0,6.7511864E0,4.8130627E0,1.7145844E0,1.4240702E1,4.4020877E0,3.9030237E0,1.2201209E0,5.325515E-1,0E0,2.4465656E0,2.9343414E0,2.432396E0,0E0,0E0,0E0,0E0,0E0,0E0,0E0,0E0,0E0,0E0,0E0,0E0,0E0,0E0,0E0,0E0,0E0,0E0,0E0,0E0,0E0,0E0,0E0,0E0,0E0,0E0,0E0,0E0,0E0],"parents":[2147483647,0,0,1,1,2,2,3,3,4,4,5,5,6,6,7,7,8,8,9,9,10,10,11,11,12,12,13,13,14,14,15,15,16,16,17,17,18,18,19,19,20,20,21,21,22,22,23,23,24,24,25,25,27,27,28,28,29,29],"right_children":[2,4,6,8,10,12,14,16,18,20,22,24,26,28,30,32,34,36,38,40,42,44,46,48,50,52,-1,54,56,58,-1,-1,-1,-1,-1,-1,-1,-1,-1,-1,-1,-1,-1,-1,-1,-1,-1,-1,-1,-1,-1,-1,-1,-1,-1,-1,-1,-1,-1],"split_conditions":[-1.1662817E-1,-1.2562491E0,7.203069E-1,1E0,1E0,1E0,1E0,-1.1357449E0,-2.0624161E-1,1.9148319E0,1E0,2.6734283E0,1E0,7.125202E-1,1.5371713E-1,1.0524063E0,2.010657E0,1.2794873E0,1E0,-2.891445E-1,1E0,8.7363464E-1,-1.3593389E0,1E0,1E0,1E0,-1.946022E-2,1E0,-7.682698E-1,7.13097E-1,-6.2001776E-2,5.1371623E-2,-1.7533846E-2,-5.520738E-2,1.2910122E-1,5.878448E-2,3.103109E-2,1.2748663E-2,5.5644613E-2,-9.47067E-3,-5.759662E-2,1.1145393E-2,1.4425425E-1,1.7754307E-2,-3.9672237E-2,6.211042E-3,-2.588071E-2,-1.1383855E-2,-4.586662E-2,-6.868948E-2,-1.83591E-2,5.3438228E-2,-9.2665935E-3,-4.8601422E-2,-1.747343E-2,-2.9659006E-3,-2.8984198E-2,-7.2307526E-3,1.6392444E-1],"split_indices":[4,8,5,42,33,52,17,4,1,0,59,1,30,7,1,0,0,6,57,0,57,1,7,59,9,27,0,23,0,7,0,0,0,0,0,0,0,0,0,0,0,0,0,0,0,0,0,0,0,0,0,0,0,0,0,0,0,0,0],"split_type":[0,0,0,0,0,0,0,0,0,0,0,0,0,0,0,0,0,0,0,0,0,0,0,0,0,0,0,0,0,0,0,0,0,0,0,0,0,0,0,0,0,0,0,0,0,0,0,0,0,0,0,0,0,0,0,0,0,0,0],"sum_hessian":[2.7614646E3,1.5624667E3,1.1989979E3,5.7457446E2,9.878922E2,7.616625E2,4.373355E2,7.684999E1,4.9772446E2,9.0213264E1,8.9767896E2,7.4854407E2,1.3118379E1,4.3320972E2,4.1257925E0,4.0506004E1,3.6343987E1,2.5352342E2,2.4420103E2,8.68386E1,3.3746674E0,7.158408E2,1.8183809E2,7.251195E2,2.3424534E1,1.1769935E1,1.348444E0,1.4568903E2,2.875207E2,2.7101846E0,1.4156078E0,2.7901852E1,1.2604153E1,3.251539E1,3.8285987E0,1.327775E2,1.2074593E2,1.9996866E2,4.4232372E1,3.5013416E1,5.182518E1,1.8785663E0,1.4961011E0,6.7062274E2,4.521807E1,6.7333916E1,1.1450418E2,6.9150433E2,3.3615177E1,1.5244818E1,8.179716E0,1.0540739E1,1.2291957E0,1.1111523E2,3.45738E1,5.3445354E1,2.3407533E2,1.0981516E0,1.6120331E0],"tree_param":{"num_deleted":"0","num_feature":"62","num_nodes":"59","size_leaf_vector":"1"}},{"base_weights":[-5.7589053E-3,1.22448154E-1,-1.7581773E-1,7.568835E-2,3.865445E-1,-1.6723968E-1,-7.9132473E-1,1.3247845E-1,-6.3696824E-2,4.1750124E-1,6.1734016E-3,-3.0538076E-1,-1.3055024E-1,-9.526084E-2,-2.9478782E-1,1.8307635E-1,-5.3936142E-2,-9.8620266E-2,5.546802E-1,4.338139E-1,-5.383861E-1,4.4065043E-1,-2.6344183E-1,-3.3197698E-1,3.3977494E-2,-7.2918415E-2,-2.0219147E-1,-7.6466195E-2,4.6885513E-2,2.0999974E-2,-1.1379403E-2,-2.5557628E-2,7.8076655E-3,-6.2423386E-2,-5.6326995E-3,3.374748E-2,1.2724829E-1,3.4169044E-2,5.547578E-2,-8.329739E-2,8.652634E-3,9.9833526E-2,-3.434247E-3,-5.6196064E-2,9.743169E-2,-3.1176357E-2,-9.00554E-2,6.375339E-2,-4.1744035E-2,4.9306075E-3,-1.4584846E-2,-1.8629992E-2,-7.760067E-2],"categories":[],"categories_nodes":[],"categories_segments":[],"categories_sizes":[],"default_left":[0,0,0,0,0,0,0,0,0,0,0,0,0,0,0,0,0,0,0,0,0,0,0,0,0,0,0,0,0,0,0,0,0,0,0,0,0,0,0,0,0,0,0,0,0,0,0,0,0,0,0,0,0],"id":19,"left_children":[1,3,5,7,9,11,13,15,17,19,21,23,25,-1,27,29,31,33,35,37,39,41,43,45,47,49,51,-1,-1,-1,-1,-1,-1,-1,-1,-1,-1,-1,-1,-1,-1,-1,-1,-1,-1,-1,-1,-1,-1,-1,-1,-1,-1],"loss_changes":[5.981823E1,1.9288664E1,6.094208E0,1.0538322E1,2.765335E0,5.861492E0,9.9583626E-1,8.927895E0,8.385645E0,3.6228523E0,2.3073578E0,2.2099552E0,3.791029E0,0E0,2.2805722E0,5.969469E0,5.4134364E0,8.100832E0,2.8092723E0,2.1977463E0,8.256186E-1,2.0308723E0,5.0438795E0,2.3165398E0,5.3369026E0,4.574547E0,3.597515E0,0E0,0E0,0E0,0E0,0E0,0E0,0E0,0E0,0E0,0E0,0E0,0E0,0E0,0E0,0E0,0E0,0E0,0E0,0E0,0E0,0E0,0E0,0E0,0E0,0E0,0E0],"parents":[2147483647,0,0,1,1,2,2,3,3,4,4,5,5,6,6,7,7,8,8,9,9,10,10,11,11,12,12,14,14,15,15,16,16,17,17,18,18,19,19,20,20,21,21,22,22,23,23,24,24,25,25,26,26],"right_children":[2,4,6,8,10,12,14,16,18,20,22,24,26,-1,28,30,32,34,36,38,40,42,44,46,48,50,52,-1,-1,-1,-1,-1,-1,-1,-1,-1,-1,-1,-1,-1,-1,-1,-1,-1,-1,-1,-1,-1,-1,-1,-1,-1,-1],"split_conditions":[-1.1662817E-1,1E0,4.113263E0,1E0,5.1367587E-1,3.967457E-1,1E0,1E0,-1.3085806E0,1E0,-1.6125532E0,1E0,-1.6693046E-3,-9.526084E-2,1.8998082E-1,1E0,-1.2299162E0,1E0,1.6273568E0,9.415576E-2,3.7060206E0,1E0,1E0,1E0,-2.0624161E-1,-3.2133916E-1,1E0,-7.6466195E-2,4.6885513E-2,2.0999974E-2,-1.1379403E-2,-2.5557628E-2,7.8076655E-3,-6.2423386E-2,-5.6326995E-3,3.374748E-2,1.2724829E-1,3.4169044E-2,5.547578E-2,-8.329739E-2,8.652634E-3,9.9833526E-2,-3.434247E-3,-5.6196064E-2,9.743169E-2,-3.1176357E-2,-9.00554E-2,6.375339E-2,-4.1744035E-2,4.9306075E-3,-1.4584846E-2,-1.8629992E-2,-7.760067E-2],"split_indices":[4,61,1,50,1,8,31,55,7,20,7,26,0,0,0,27,6,42,0,0,3,22,57,37,1,6,19,0,0,0,0,0,0,0,0,0,0,0,0,0,0,0,0,0,0,0,0,0,0,0,0,0,0],"split_type":[0,0,0,0,0,0,0,0,0,0,0,0,0,0,0,0,0,0,0,0,0,0,0,0,0,0,0,0,0,0,0,0,0,0,0,0,0,0,0,0,0,0,0,0,0,0,0,0,0,0,0,0,0],"sum_hessian":[2.741623E3,1.5633192E3,1.1783037E3,1.3292537E3,2.3406555E2,1.1633622E3,1.4941572E1,9.444879E2,3.847658E2,2.1635938E2,1.7706175E1,2.4260301E2,9.2075916E2,1.05849085E1,4.356664E0,7.428708E2,2.0161714E2,3.6499298E2,1.9772816E1,2.1326607E2,3.0933127E0,6.537239E0,1.1168936E1,2.2499167E2,1.7611332E1,5.1138947E2,4.093697E2,2.6962879E0,1.6603764E0,6.8136957E2,6.1501213E1,7.9401306E1,1.22215836E2,2.615712E1,3.3883588E2,1.6308155E1,3.4646597E0,1.2322799E2,9.003807E1,1.8760064E0,1.2173061E0,2.5001023E0,4.037137E0,9.43856E0,1.730377E0,2.1876277E2,6.228898E0,7.3593774E0,1.0251955E1,1.9122937E2,3.201601E2,3.9962686E2,9.74281E0],"tree_param":{"num_deleted":"0","num_feature":"62","num_nodes":"53","size_leaf_vector":"1"}},{"base_weights":[-5.4005333E-3,1.1040128E-1,-1.6111703E-1,6.805367E-2,3.5198992E-1,-1.5303342E-1,-7.716943E-1,4.489603E-2,3.9732972E-1,3.6450878E-1,-3.994028E-1,-1.18976355E-1,-2.83505E-1,-9.416161E-2,-2.78189E-1,-4.3022744E-2,1.4228104E-1,3.2283777E-1,8.5895896E-1,3.9470154E-1,-5.592196E-3,-7.8551926E-2,2.1517776E-2,-1.0748349E-1,-4.7546318E-1,-3.6304164E-1,-1.7145638E-1,-7.474792E-2,4.275695E-2,1.2845005E-2,-1.4868294E-2,1.1829146E-2,4.5982778E-2,5.507601E-2,1.2094515E-2,1.0961553E-1,-2.7645666E-2,3.4807485E-2,6.0711335E-2,-1.7638396E-2,5.5068117E-2,-9.585958E-3,-4.0914353E-2,5.3571023E-2,-6.0744394E-2,-4.3874223E-2,-1.2766436E-2,-1.3244897E-2,-6.3834965E-2],"categories":[],"categories_nodes":[],"categories_segments":[],"categories_sizes":[],"default_left":[0,0,0,0,0,0,0,0,0,0,0,0,0,0,0,0,0,0,0,0,0,0,0,0,0,0,0,0,0,0,0,0,0,0,0,0,0,0,0,0,0,0,0,0,0,0,0,0,0],"id":20,"left_children":[1,3,5,7,9,11,13,15,17,19,21,23,25,-1,27,29,31,33,35,37,39,-1,-1,41,43,45,47,-1,-1,-1,-1,-1,-1,-1,-1,-1,-1,-1,-1,-1,-1,-1,-1,-1,-1,-1,-1,-1,-1],"loss_changes":[4.9147137E1,1.5967825E1,5.6191826E0,1.0133099E1,2.336298E0,5.0694637E0,9.909687E-1,1.0664757E1,2.7262697E0,2.56781E0,1.18793E0,3.6872988E0,2.0499554E0,0E0,2.0571475E0,1.18863945E1,4.446784E0,3.4678879E0,3.409336E0,1.8912468E0,1.8361139E0,0E0,0E0,3.0648985E0,4.089686E0,2.3978863E0,1.7419364E0,0E0,0E0,0E0,0E0,0E0,0E0,0E0,0E0,0E0,0E0,0E0,0E0,0E0,0E0,0E0,0E0,0E0,0E0,0E0,0E0,0E0,0E0],"parents":[2147483647,0,0,1,1,2,2,3,3,4,4,5,5,6,6,7,7,8,8,9,9,10,10,11,11,12,12,14,14,15,15,16,16,17,17,18,18,19,19,20,20,23,23,24,24,25,25,26,26],"right_children":[2,4,6,8,10,12,14,16,18,20,22,24,26,-1,28,30,32,34,36,38,40,-1,-1,42,44,46,48,-1,-1,-1,-1,-1,-1,-1,-1,-1,-1,-1,-1,-1,-1,-1,-1,-1,-1,-1,-1,-1,-1],"split_conditions":[-1.8032296E-1,1E0,4.113263E0,1E0,1E0,1E0,1E0,-1.165018E0,1E0,5.1367587E-1,3.7060206E0,1E0,7.125202E-1,-9.416161E-2,1.8998082E-1,-5.766197E-1,1.1019015E0,-2.0624161E-1,1E0,1.8190068E0,1E0,-7.8551926E-2,2.1517776E-2,1E0,3.277958E-1,1E0,1E0,-7.474792E-2,4.275695E-2,1.2845005E-2,-1.4868294E-2,1.1829146E-2,4.5982778E-2,5.507601E-2,1.2094515E-2,1.0961553E-1,-2.7645666E-2,3.4807485E-2,6.0711335E-2,-1.7638396E-2,5.5068117E-2,-9.585958E-3,-4.0914353E-2,5.3571023E-2,-6.0744394E-2,-4.3874223E-2,-1.2766436E-2,-1.3244897E-2,-6.3834965E-2],"split_indices":[4,61,1,49,20,50,31,6,58,1,3,12,7,0,0,0,5,1,15,0,57,0,0,59,7,23,13,0,0,0,0,0,0,0,0,0,0,0,0,0,0,0,0,0,0,0,0,0,0],"split_type":[0,0,0,0,0,0,0,0,0,0,0,0,0,0,0,0,0,0,0,0,0,0,0,0,0,0,0,0,0,0,0,0,0,0,0,0,0,0,0,0,0,0,0,0,0,0,0,0,0],"sum_hessian":[2.7235264E3,1.5621168E3,1.1614097E3,1.3302258E3,2.3189104E2,1.1474685E3,1.3941053E1,1.2438812E3,8.634451E1,2.2859729E2,3.2937434E0,9.1146124E2,2.360073E2,9.6949215E0,4.2461324E0,6.540058E2,5.898755E2,7.581051E1,1.0534004E1,2.1129353E2,1.730375E1,1.852041E0,1.4417022E0,8.8425507E2,2.7206203E1,1.3671872E2,9.928857E1,2.5148091E0,1.7313231E0,2.4926512E2,4.047407E2,5.497186E2,4.0156857E1,3.4798035E1,4.1012474E1,8.742262E0,1.7917422E0,1.754246E2,3.586894E1,1.3761496E1,3.5422523E0,8.52715E2,3.1540033E1,2.787871E0,2.4418331E1,1.02794586E2,3.392414E1,9.2817635E1,6.470931E0],"tree_param":{"num_deleted":"0","num_feature":"62","num_nodes":"49","size_leaf_vector":"1"}},{"base_weights":[-5.015388E-3,9.95801E-2,-1.4754826E-1,2.2030345E-1,2.9326916E-2,-1.4040813E-1,-7.9347116E-1,2.726837E-1,2.35119E-2,1.604805E-1,-5.9313983E-2,-9.293819E-2,-2.2611682E-1,-9.230258E-2,-3.4519386E-1,4.6200773E-1,2.1642508E-1,2.2502719E-1,-1.4202699E-1,-2.8175047E-1,1.9436274E-1,-1.8098867E-1,2.136033E-1,-7.855448E-2,-4.0189472E-1,-2.3503734E-1,5.155524E-1,-7.24596E-2,4.2662133E-2,5.246569E-2,-2.451737E-2,2.3484742E-2,-4.9333375E-2,1.0578934E-1,1.1124215E-2,-7.984758E-2,1.3425989E-3,6.480676E-3,-8.16115E-2,2.5368249E-2,-4.867921E-3,-2.1238951E-2,1.0049267E-1,4.558139E-3,4.8548628E-2,-1.1566157E-2,6.1487025E-3,-5.1924825E-2,3.294059E-2,-2.1994269E-2,-6.6344924E-2,1.0256945E-1,-5.8593642E-2],"categories":[],"categories_nodes":[],"categories_segments":[],"categories_sizes":[],"default_left":[0,0,0,0,0,0,0,0,0,0,0,0,0,0,0,0,0,0,0,0,0,0,0,0,0,0,0,0,0,0,0,0,0,0,0,0,0,0,0,0,0,0,0,0,0,0,0,0,0,0,0,0,0],"id":21,"left_children":[1,3,5,7,9,11,13,15,17,19,21,23,25,-1,27,29,31,33,35,37,39,41,43,45,47,49,51,-1,-1,-1,-1,-1,-1,-1,-1,-1,-1,-1,-1,-1,-1,-1,-1,-1,-1,-1,-1,-1,-1,-1,-1,-1,-1],"loss_changes":[4.0376717E1,1.3241855E1,5.175169E0,5.9153023E0,1.1502588E1,4.596649E0,3.9673615E-1,4.7315483E0,4.097029E0,6.0327406E0,1.965209E1,3.221891E0,2.7930355E0,0E0,1.585592E0,4.693512E0,4.7129574E0,5.1272173E0,6.900404E0,5.38633E0,5.3634768E0,1.5446078E1,8.318803E0,3.6487746E0,2.9451866E0,2.4390335E0,3.4738946E0,0E0,0E0,0E0,0E0,0E0,0E0,0E0,0E0,0E0,0E0,0E0,0E0,0E0,0E0,0E0,0E0,0E0,0E0,0E0,0E0,0E0,0E0,0E0,0E0,0E0,0E0],"parents":[2147483647,0,0,1,1,2,2,3,3,4,4,5,5,6,6,7,7,8,8,9,9,10,10,11,11,12,12,14,14,15,15,16,16,17,17,18,18,19,19,20,20,21,21,22,22,23,23,24,24,25,25,26,26],"right_children":[2,4,6,8,10,12,14,16,18,20,22,24,26,-1,28,30,32,34,36,38,40,42,44,46,48,50,52,-1,-1,-1,-1,-1,-1,-1,-1,-1,-1,-1,-1,-1,-1,-1,-1,-1,-1,-1,-1,-1,-1,-1,-1,-1,-1],"split_conditions":[-1.8032296E-1,-1.2562491E0,4.4732223E0,1E0,-5.766197E-1,7.203069E-1,1E0,-5.1316447E0,-2.0624161E-1,1E0,9.565813E-1,1E0,1E0,-9.230258E-2,2.8580588E-1,1E0,1.2335933E0,-5.147753E0,-9.599199E-1,1E0,1E0,-1.13035E0,-1.3085806E0,1E0,1E0,1E0,1.5371713E-1,-7.24596E-2,4.2662133E-2,5.246569E-2,-2.451737E-2,2.3484742E-2,-4.9333375E-2,1.0578934E-1,1.1124215E-2,-7.984758E-2,1.3425989E-3,6.480676E-3,-8.16115E-2,2.5368249E-2,-4.867921E-3,-2.1238951E-2,1.0049267E-1,4.558139E-3,4.8548628E-2,-1.1566157E-2,6.1487025E-3,-5.1924825E-2,3.294059E-2,-2.1994269E-2,-6.6344924E-2,1.0256945E-1,-5.8593642E-2],"split_indices":[4,8,1,55,0,5,9,2,1,42,0,59,17,0,0,48,1,2,0,50,59,7,7,58,13,37,1,0,0,0,0,0,0,0,0,0,0,0,0,0,0,0,0,0,0,0,0,0,0,0,0,0,0],"split_type":[0,0,0,0,0,0,0,0,0,0,0,0,0,0,0,0,0,0,0,0,0,0,0,0,0,0,0,0,0,0,0,0,0,0,0,0,0,0,0,0,0,0,0,0,0,0,0,0,0,0,0,0,0],"sum_hessian":[2.7063533E3,1.5610806E3,1.1452728E3,5.7347797E2,9.8760254E2,1.1339553E3,1.1317537E1,4.526183E2,1.2085965E2,3.9796332E2,5.896392E2,7.311119E2,4.0284348E2,7.958451E0,3.3590868E0,1.02034615E2,3.5058368E2,5.4344795E1,6.6514854E1,2.7800158E1,3.7016315E2,4.080536E2,1.8158565E2,6.99787E2,3.1324863E1,3.9873077E2,4.112693E0,2.2930627E0,1.0660241E0,9.396809E1,8.066526E0,3.4236642E2,8.217263E0,5.53479E0,4.8810005E1,1.1943451E1,5.4571404E1,1.7396523E1,1.0403634E1,2.9750638E2,7.2656784E1,3.9832755E2,9.72607E0,1.1295057E2,6.863508E1,5.533411E2,1.4644589E2,2.7243069E1,4.0817947E0,3.8662192E2,1.2108849E1,2.8578997E0,1.254793E0],"tree_param":{"num_deleted":"0","num_feature":"62","num_nodes":"53","size_leaf_vector":"1"}},{"base_weights":[-4.7118305E-3,8.5133016E-2,-1.4211789E-1,1.01197414E-1,-3.7026584E-1,-2.6245096E-1,-9.850243E-2,-1.632591E-1,1.2697099E-1,-1.9546346E-1,-9.8327434E-1,-3.3690184E-1,-1.0638617E-2,-8.4625855E-2,-5.1495355E-1,-3.1638306E-1,2.1662033E-1,7.830242E-2,3.1505185E-1,-4.5967147E-1,2.4664518E-1,-1.128554E-1,-1.8763992E-1,-3.835047E-1,-8.278291E-2,5.3033197E-1,-1.1389041E-1,-7.55844E-2,-7.4063545E-1,3.3717297E-2,-5.877E-1,-4.2248644E-2,7.766386E-2,1.2443447E-1,1.2468953E-3,2.4057437E-2,2.5063392E-3,4.097321E-2,7.6030283E-3,-5.524082E-2,1.7965239E-2,5.1123466E-2,-6.399771E-2,3.7179943E-2,-6.480421E-2,-5.7695936E-2,-3.1812813E-2,5.0942833E-3,-7.3267765E-2,1.2597036E-1,9.757419E-3,-2.0865086E-2,3.336155E-2,-1.5712395E-2,-2.449679E-3,-8.9347385E-2,-2.7101358E-2,-6.88953E-2,-1.1805886E-2],"categories":[],"categories_nodes":[],"categories_segments":[],"categories_sizes":[],"default_left":[0,0,0,0,0,0,0,0,0,0,0,0,0,0,0,0,0,0,0,0,0,0,0,0,0,0,0,0,0,0,0,0,0,0,0,0,0,0,0,0,0,0,0,0,0,0,0,0,0,0,0,0,0,0,0,0,0,0,0],"id":22,"left_children":[1,3,5,7,9,11,13,15,17,19,21,23,25,27,29,31,33,35,37,39,41,-1,43,45,47,49,51,53,55,-1,57,-1,-1,-1,-1,-1,-1,-1,-1,-1,-1,-1,-1,-1,-1,-1,-1,-1,-1,-1,-1,-1,-1,-1,-1,-1,-1,-1,-1],"loss_changes":[3.3240818E1,1.1948193E1,5.5611725E0,1.07450905E1,5.7752633E0,5.2944202E0,4.4808903E0,8.221608E0,1.3103918E1,5.320848E0,1.1878576E0,2.5508614E0,3.720033E0,4.445134E0,1.750988E0,1.1960521E1,8.557426E0,9.849066E0,6.6337414E0,1.7743979E0,4.3919487E0,0E0,1.0314188E0,2.1436539E0,3.0852299E0,3.2474153E0,2.4376001E0,3.1190372E0,4.9021673E-1,0E0,1.0334988E0,0E0,0E0,0E0,0E0,0E0,0E0,0E0,0E0,0E0,0E0,0E0,0E0,0E0,0E0,0E0,0E0,0E0,0E0,0E0,0E0,0E0,0E0,0E0,0E0,0E0,0E0,0E0,0E0],"parents":[2147483647,0,0,1,1,2,2,3,3,4,4,5,5,6,6,7,7,8,8,9,9,10,10,11,11,12,12,13,13,14,14,15,15,16,16,17,17,18,18,19,19,20,20,22,22,23,23,24,24,25,25,26,26,27,27,28,28,30,30],"right_children":[2,4,6,8,10,12,14,16,18,20,22,24,26,28,30,32,34,36,38,40,42,-1,44,46,48,50,52,54,56,-1,58,-1,-1,-1,-1,-1,-1,-1,-1,-1,-1,-1,-1,-1,-1,-1,-1,-1,-1,-1,-1,-1,-1,-1,-1,-1,-1,-1,-1],"split_conditions":[2.8684312E-1,1.2335933E0,7.136738E-1,1E0,1E0,1E0,1E0,1.2794873E0,-3.588636E-1,-2.7807358E-1,2.3134696E0,1.1482314E0,3.0587748E-1,4.4732223E0,8.387938E-1,2.010657E0,1.6256118E0,-8.6409485E-1,1E0,1.4357066E0,1E0,-1.128554E-1,3.0333872E0,3.277958E-1,1E0,-7.682698E-1,1E0,-2.0624161E-1,1E0,3.3717297E-2,1E0,-4.2248644E-2,7.766386E-2,1.2443447E-1,1.2468953E-3,2.4057437E-2,2.5063392E-3,4.097321E-2,7.6030283E-3,-5.524082E-2,1.7965239E-2,5.1123466E-2,-6.399771E-2,3.7179943E-2,-6.480421E-2,-5.7695936E-2,-3.1812813E-2,5.0942833E-3,-7.3267765E-2,1.2597036E-1,9.757419E-3,-2.0865086E-2,3.336155E-2,-1.5712395E-2,-2.449679E-3,-8.9347385E-2,-2.7101358E-2,-6.88953E-2,-1.1805886E-2],"split_indices":[7,1,7,42,56,23,12,6,5,6,1,0,7,1,4,0,6,0,59,0,28,0,1,7,9,0,41,1,9,0,58,0,0,0,0,0,0,0,0,0,0,0,0,0,0,0,0,0,0,0,0,0,0,0,0,0,0,0,0],"split_type":[0,0,0,0,0,0,0,0,0,0,0,0,0,0,0,0,0,0,0,0,0,0,0,0,0,0,0,0,0,0,0,0,0,0,0,0,0,0,0,0,0,0,0,0,0,0,0,0,0,0,0,0,0,0,0,0,0,0,0],"sum_hessian":[2.690625E3,1.627102E3,1.0635228E3,1.5724124E3,5.4689766E1,2.815956E2,7.819272E2,1.3916267E2,1.4332496E3,4.3581226E1,1.11085415E1,2.1707677E2,6.451885E1,7.5787714E2,2.4050026E1,9.930243E1,3.986024E1,1.1397418E3,2.9350787E2,2.725417E1,1.6327055E1,9.039528E0,2.0690143E0,1.8300615E2,3.407062E1,9.677725E0,5.4841125E1,7.4867377E2,9.203383E0,1.6057636E0,2.2444262E1,9.107494E1,8.227488E0,5.7614E0,3.409884E1,2.806883E2,8.5905347E2,2.097202E2,8.378768E1,2.3920364E1,3.3338044E0,1.2900598E1,3.4264588E0,1.0209247E0,1.0480896E0,4.4247868E1,1.3875829E2,2.9020771E1,5.049852E0,2.8922467E0,6.7854776E0,4.5698177E1,9.142951E0,2.8758752E2,4.6108627E2,6.262662E0,2.9407215E0,1.8079422E1,4.3648396E0],"tree_param":{"num_deleted":"0","num_feature":"62","num_nodes":"59","size_leaf_vector":"1"}},{"base_weights":[-4.4693328E-3,7.65778E-2,-1.2991537E-1,2.682863E-1,4.227101E-2,-2.424271E-1,-8.974184E-2,2.8474268E-1,-2.558157E-1,-2.2156666E-1,6.938222E-2,-3.1366023E-1,-7.857508E-3,-8.148992E-2,-7.264653E-1,1.9072692E-1,3.763252E-1,-5.7301456E-1,5.7692625E-2,-3.7883574E-1,1.14041865E-1,8.440016E-2,-3.9226666E-1,-2.9048032E-1,-8.9916855E-2,4.709075E-1,-1.0357385E-1,-6.8529375E-2,-4.838859E-1,-8.841878E-2,-2.557302E-1,-6.712958E-2,2.202559E-2,5.205356E-2,2.184572E-2,-8.111571E-2,3.0812824E-2,-5.3393196E-2,2.3922266E-2,6.0658164E-2,-3.435564E-2,1.2917519E-2,-4.5914925E-3,4.1530628E-2,-5.2397E-2,-3.0939305E-2,7.675045E-2,1.06988184E-1,8.837407E-3,-1.9190457E-2,2.94981E-2,-2.7890578E-3,-1.6968863E-2,3.3215318E-2,-5.5794235E-2,-6.6582374E-2,4.2158738E-2],"categories":[],"categories_nodes":[],"categories_segments":[],"categories_sizes":[],"default_left":[0,0,0,0,0,0,0,0,0,0,0,0,0,0,0,0,0,0,0,0,0,0,0,0,0,0,0,0,0,0,0,0,0,0,0,0,0,0,0,0,0,0,0,0,0,0,0,0,0,0,0,0,0,0,0,0,0],"id":23,"left_children":[1,3,5,7,9,11,13,15,17,19,21,23,25,27,29,31,33,35,-1,37,39,41,43,45,-1,47,49,51,53,-1,55,-1,-1,-1,-1,-1,-1,-1,-1,-1,-1,-1,-1,-1,-1,-1,-1,-1,-1,-1,-1,-1,-1,-1,-1,-1,-1],"loss_changes":[2.724017E1,1.0693916E1,4.731373E0,2.2021542E0,9.899495E0,4.6108665E0,4.020587E0,1.993288E0,2.4550138E0,6.851908E0,8.725889E0,2.6127892E0,3.042982E0,3.9704657E0,5.0209284E-1,3.2119613E0,2.6287975E0,1.5773473E0,0E0,8.569922E0,9.658856E0,7.0961237E0,4.4379997E0,4.342802E0,0E0,2.441132E0,2.0024552E0,3.0574815E0,1.6229644E0,0E0,1.3552126E0,0E0,0E0,0E0,0E0,0E0,0E0,0E0,0E0,0E0,0E0,0E0,0E0,0E0,0E0,0E0,0E0,0E0,0E0,0E0,0E0,0E0,0E0,0E0,0E0,0E0,0E0],"parents":[2147483647,0,0,1,1,2,2,3,3,4,4,5,5,6,6,7,7,8,8,9,9,10,10,11,11,12,12,13,13,14,14,15,15,16,16,17,17,19,19,20,20,21,21,22,22,23,23,25,25,26,26,27,27,28,28,30,30],"right_children":[2,4,6,8,10,12,14,16,18,20,22,24,26,28,30,32,34,36,-1,38,40,42,44,46,-1,48,50,52,54,-1,56,-1,-1,-1,-1,-1,-1,-1,-1,-1,-1,-1,-1,-1,-1,-1,-1,-1,-1,-1,-1,-1,-1,-1,-1,-1,-1],"split_conditions":[2.8684312E-1,-5.0833216E0,7.136738E-1,2.0550249E0,1E0,1E0,4.4732223E0,-8.665054E-1,1E0,8.90097E-1,1.2335933E0,1.5935521E0,3.0587748E-1,1E0,1E0,-1.7265204E0,-2.0624161E-1,2.010657E0,5.7692625E-2,9.565813E-1,-2.0624161E-1,1E0,-1.1994398E0,1.2335933E0,-8.9916855E-2,-7.682698E-1,1E0,1E0,8.387938E-1,-8.841878E-2,1.8998082E-1,-6.712958E-2,2.202559E-2,5.205356E-2,2.184572E-2,-8.111571E-2,3.0812824E-2,-5.3393196E-2,2.3922266E-2,6.0658164E-2,-3.435564E-2,1.2917519E-2,-4.5914925E-3,4.1530628E-2,-5.2397E-2,-3.0939305E-2,7.675045E-2,1.06988184E-1,8.837407E-3,-1.9190457E-2,2.94981E-2,-2.7890578E-3,-1.6968863E-2,3.3215318E-2,-5.5794235E-2,-6.6582374E-2,4.2158738E-2],"split_indices":[7,2,7,5,42,23,1,5,18,6,1,1,7,12,9,0,1,0,0,0,1,59,4,1,0,0,41,23,4,0,0,0,0,0,0,0,0,0,0,0,0,0,0,0,0,0,0,0,0,0,0,0,0,0,0,0,0],"split_type":[0,0,0,0,0,0,0,0,0,0,0,0,0,0,0,0,0,0,0,0,0,0,0,0,0,0,0,0,0,0,0,0,0,0,0,0,0,0,0,0,0,0,0,0,0,0,0,0,0,0,0,0,0,0,0,0,0],"sum_hessian":[2.6772837E3,1.6267051E3,1.0505785E3,2.4588184E2,1.3808232E3,2.7509662E2,7.754819E2,2.3883917E2,7.04266E0,1.2799955E2,1.2528237E3,2.1075748E2,6.433915E1,7.6667377E2,8.808096E0,1.1937506E2,1.1946411E2,5.325879E0,1.7167809E0,8.706931E1,4.093024E1,1.2141434E3,3.868024E1,2.0417061E2,6.586873E0,1.0066674E1,5.4272476E1,7.438847E2,2.2789055E1,5.939664E0,2.8684325E0,3.2339756E0,1.1614109E2,6.1232094E1,5.8232018E1,4.2552567E0,1.0706227E0,6.971186E1,1.7357452E1,1.955571E1,2.137453E1,9.036624E2,3.1048108E2,5.121724E0,3.3558517E1,2.0128004E2,2.890558E0,3.2230935E0,6.843581E0,4.4850803E1,9.421672E0,5.316002E2,2.122845E2,1.6060954E0,2.1182959E1,1.7972351E0,1.0711973E0],"tree_param":{"num_deleted":"0","num_feature":"62","num_nodes":"57","size_leaf_vector":"1"}},{"base_weights":[-4.1882624E-3,1.3179113E-1,-6.8366595E-2,2.5646174E-1,9.401163E-2,1.4969882E0,-7.266995E-2,1.9625479E-1,6.839015E-1,-1.7569761E-1,1.24554716E-1,1.962171E-1,-1.6952705E-2,-1.8681818E-1,-2.7842555E-2,2.774813E-1,-2.1891112E-2,8.18343E-1,-2.0235941E-1,-4.2862438E-2,-6.310286E-1,6.274946E-2,2.462382E-1,-2.0471136E-1,4.6702912E-1,-4.0622894E-2,5.34195E-1,3.4295205E-2,-1.3340205E-2,-1.4364406E-2,9.7216204E-2,1.0585095E-1,1.7638154E-2,-5.495092E-2,2.139539E-2,5.9794644E-3,-8.607298E-2,-2.3689719E-2,-8.9814655E-2,1.4111384E-4,3.1801872E-2,3.304145E-2,-2.18628E-4,-6.5988705E-2,-1.8576058E-2,6.284978E-2,5.7129962E-3,5.2306107E-3,-1.2153194E-2,-7.864077E-2,6.605524E-2],"categories":[],"categories_nodes":[],"categories_segments":[],"categories_sizes":[],"default_left":[0,0,0,0,0,0,0,0,0,0,0,0,0,0,0,0,0,0,0,0,0,0,0,0,0,0,0,0,0,0,0,0,0,0,0,0,0,0,0,0,0,0,0,0,0,0,0,0,0,0,0],"id":24,"left_children":[1,3,5,7,9,11,13,15,17,19,21,-1,-1,23,25,27,29,31,33,35,37,39,41,43,45,47,49,-1,-1,-1,-1,-1,-1,-1,-1,-1,-1,-1,-1,-1,-1,-1,-1,-1,-1,-1,-1,-1,-1,-1,-1],"loss_changes":[2.3277033E1,4.0040607E0,1.231489E1,4.9694195E0,5.441692E0,4.219695E0,9.246169E0,3.1110792E0,3.035039E0,4.0460567E0,4.4336386E0,0E0,0E0,6.058008E0,9.354946E0,3.4826555E0,6.0061255E0,3.0677948E0,6.9187075E-1,4.518622E0,1.3807468E0,6.16337E0,4.160486E0,4.1623764E0,8.8274455E-1,9.565656E0,5.3519545E0,0E0,0E0,0E0,0E0,0E0,0E0,0E0,0E0,0E0,0E0,0E0,0E0,0E0,0E0,0E0,0E0,0E0,0E0,0E0,0E0,0E0,0E0,0E0,0E0],"parents":[2147483647,0,0,1,1,2,2,3,3,4,4,5,5,6,6,7,7,8,8,9,9,10,10,13,13,14,14,15,15,16,16,17,17,18,18,19,19,20,20,21,21,22,22,23,23,24,24,25,25,26,26],"right_children":[2,4,6,8,10,12,14,16,18,20,22,-1,-1,24,26,28,30,32,34,36,38,40,42,44,46,48,50,-1,-1,-1,-1,-1,-1,-1,-1,-1,-1,-1,-1,-1,-1,-1,-1,-1,-1,-1,-1,-1,-1,-1,-1],"split_conditions":[-9.397475E-1,-1.6748474E0,-1.9181705E0,1E0,1E0,5.1367587E-1,1E0,1E0,1E0,1E0,-1.1994398E0,1.962171E-1,-1.6952705E-2,1E0,1.9148319E0,1.7231817E0,2.202307E0,1E0,1.5371713E-1,1E0,-1.5860205E0,1E0,1.5335697E0,-1.3143486E0,2.8580588E-1,-3.8496953E-1,-1.3506868E0,3.4295205E-2,-1.3340205E-2,-1.4364406E-2,9.7216204E-2,1.0585095E-1,1.7638154E-2,-5.495092E-2,2.139539E-2,5.9794644E-3,-8.607298E-2,-2.3689719E-2,-8.9814655E-2,1.4111384E-4,3.1801872E-2,3.304145E-2,-2.18628E-4,-6.5988705E-2,-1.8576058E-2,6.284978E-2,5.7129962E-3,5.2306107E-3,-1.2153194E-2,-7.864077E-2,6.605524E-2],"split_indices":[8,7,0,25,42,1,42,59,54,55,4,0,0,52,0,0,0,56,1,17,7,54,5,7,0,0,7,0,0,0,0,0,0,0,0,0,0,0,0,0,0,0,0,0,0,0,0,0,0,0,0],"split_type":[0,0,0,0,0,0,0,0,0,0,0,0,0,0,0,0,0,0,0,0,0,0,0,0,0,0,0,0,0,0,0,0,0,0,0,0,0,0,0,0,0,0,0,0,0,0,0,0,0,0,0],"sum_hessian":[2.6652324E3,8.5423914E2,1.8109933E3,1.9731622E2,6.569229E2,4.01404E0,1.8069792E3,1.7423369E2,2.3082523E1,6.634187E1,5.90581E2,2.9993944E0,1.0146456E0,5.086326E2,1.2983467E3,1.26761955E2,4.7471737E1,2.0108755E1,2.973768E0,5.2205833E1,1.413604E1,3.9265836E2,1.9792265E2,4.9575275E2,1.2879857E1,1.2703867E3,2.7959978E1,1.0948222E2,1.7279734E1,4.3053932E1,4.4178057E0,1.4161777E1,5.946979E0,1.4471208E0,1.5266471E0,4.7207348E1,4.9984827E0,6.472603E0,7.6634374E0,3.1739697E2,7.526138E1,1.4758487E2,5.033779E1,1.8463364E1,4.7728937E2,8.857418E0,4.022439E0,5.914377E2,6.78949E2,1.9854728E0,2.5974504E1],"tree_param":{"num_deleted":"0","num_feature":"62","num_nodes":"51","size_leaf_vector":"1"}},{"base_weights":[-3.798235E-3,6.344072E-2,-1.0986443E-1,8.175945E-2,-2.3317614E-1,-1.0297796E-1,-6.930795E-1,1.22697085E-1,-6.0706384E-2,-2.8785923E-1,3.131164E-1,-2.262211E-1,-6.949953E-2,-9.056475E-2,-1.4691661E-1,1.5506423E-1,-6.856855E-2,9.966898E-2,-1.9233546E-1,3.332795E-2,-4.0257916E-1,-1.5537286E-2,8.159629E-1,-3.0140588E-1,6.844057E-3,-5.7598762E-2,-4.4994578E-1,-6.82214E-2,5.2156437E-2,3.403798E-2,1.2549308E-2,6.563255E-3,-5.873099E-2,5.0349357E-3,5.26928E-2,-1.6618429E-2,-8.6793266E-2,8.384915E-2,-2.3361402E-2,-4.536427E-2,4.290191E-2,5.2941676E-2,-6.47155E-2,9.82296E-2,2.5195125E-2,8.350574E-2,-3.1459615E-2,4.21555E-2,-1.019192E-2,-1.3129215E-2,-1.0604155E-3,-6.79483E-2,-1.4453228E-2],"categories":[],"categories_nodes":[],"categories_segments":[],"categories_sizes":[],"default_left":[0,0,0,0,0,0,0,0,0,0,0,0,0,0,0,0,0,0,0,0,0,0,0,0,0,0,0,0,0,0,0,0,0,0,0,0,0,0,0,0,0,0,0,0,0,0,0,0,0,0,0,0,0],"id":25,"left_children":[1,3,5,7,9,11,13,15,17,19,21,23,25,-1,27,29,31,33,35,37,39,41,43,45,47,49,51,-1,-1,-1,-1,-1,-1,-1,-1,-1,-1,-1,-1,-1,-1,-1,-1,-1,-1,-1,-1,-1,-1,-1,-1,-1,-1],"loss_changes":[1.893103E1,8.846667E0,4.064865E0,8.935755E0,2.9208403E0,4.1887445E0,1.2419939E0,7.3744144E0,7.246697E0,3.2064333E0,1.5167439E0,3.8086977E0,3.608771E0,0E0,1.9703305E0,5.5339203E0,1.2071749E1,3.239522E0,3.1840038E0,5.2961187E0,2.9092665E0,2.574823E0,9.173274E-2,2.7252035E0,2.4770162E0,2.6984448E0,1.5985446E0,0E0,0E0,0E0,0E0,0E0,0E0,0E0,0E0,0E0,0E0,0E0,0E0,0E0,0E0,0E0,0E0,0E0,0E0,0E0,0E0,0E0,0E0,0E0,0E0,0E0,0E0],"parents":[2147483647,0,0,1,1,2,2,3,3,4,4,5,5,6,6,7,7,8,8,9,9,10,10,11,11,12,12,14,14,15,15,16,16,17,17,18,18,19,19,20,20,21,21,22,22,23,23,24,24,25,25,26,26],"right_children":[2,4,6,8,10,12,14,16,18,20,22,24,26,-1,28,30,32,34,36,38,40,42,44,46,48,50,52,-1,-1,-1,-1,-1,-1,-1,-1,-1,-1,-1,-1,-1,-1,-1,-1,-1,-1,-1,-1,-1,-1,-1,-1,-1,-1],"split_conditions":[2.8684312E-1,8.7363464E-1,4.113263E0,1E0,1E0,7.125202E-1,1E0,1E0,-1.5681398E0,-7.682698E-1,1E0,1E0,1E0,-9.056475E-2,1.8998082E-1,-1.673117E0,1E0,1.1019015E0,5.734482E0,-1.5681398E0,1E0,1E0,1.6775591E0,-1.3432201E0,3.0587748E-1,1E0,1E0,-6.82214E-2,5.2156437E-2,3.403798E-2,1.2549308E-2,6.563255E-3,-5.873099E-2,5.0349357E-3,5.26928E-2,-1.6618429E-2,-8.6793266E-2,8.384915E-2,-2.3361402E-2,-4.536427E-2,4.290191E-2,5.2941676E-2,-6.47155E-2,9.82296E-2,2.5195125E-2,8.350574E-2,-3.1459615E-2,4.21555E-2,-1.019192E-2,-1.3129215E-2,-1.0604155E-3,-6.79483E-2,-1.4453228E-2],"split_indices":[7,1,1,59,47,7,31,10,7,0,54,23,12,0,0,7,54,5,3,7,48,23,3,0,7,42,36,0,0,0,0,0,0,0,0,0,0,0,0,0,0,0,0,0,0,0,0,0,0,0,0,0,0],"split_type":[0,0,0,0,0,0,0,0,0,0,0,0,0,0,0,0,0,0,0,0,0,0,0,0,0,0,0,0,0,0,0,0,0,0,0,0,0,0,0,0,0,0,0,0,0,0,0,0,0,0,0,0,0],"sum_hessian":[2.6524836E3,1.6236187E3,1.028865E3,1.5298605E3,9.375817E1,1.018021E3,1.0843986E1,1.1884869E3,3.4137357E2,8.565709E1,8.101081E0,2.1623698E2,8.01784E2,7.33211E0,3.511876E0,1.016635E3,1.7185194E2,1.5399301E2,1.8738054E2,2.272954E1,6.292755E1,5.485157E0,2.6159234E0,1.6327324E2,5.296374E1,7.7858057E2,2.3203445E1,1.9388033E0,1.5730727E0,1.3845555E2,8.7817944E2,1.3722467E2,3.4627262E1,1.3905893E2,1.49340925E1,1.8159723E2,5.783321E0,5.1262856E0,1.7603254E1,5.971528E1,3.2122722E0,3.0314543E0,2.453703E0,1.4474356E0,1.1684878E0,1.1583922E0,1.6211484E2,1.0406851E1,4.2556892E1,3.024724E2,4.7610815E2,1.2548028E1,1.0655417E1],"tree_param":{"num_deleted":"0","num_feature":"62","num_nodes":"53","size_leaf_vector":"1"}},{"base_weights":[-3.5473364E-3,9.527557E-2,-6.3145116E-2,1.073705E-1,-2.895631E-1,-7.69671E-2,3.71869E-1,-8.208135E-2,1.2843871E-1,-5.598196E-1,2.0886637E-1,3.581461E-1,-9.015764E-2,5.7107455E-1,-4.07121E-1,-1.3649315E-1,1.1560463E-1,7.49965E-2,2.3451836E-1,1.0706979E-1,-9.4871414E-1,9.374592E-1,-2.0636137E-1,4.0057802E-1,-2.6437172E-1,-1.3493259E-1,1.6915193E-2,7.603448E-1,8.11413E-2,-7.3372424E-1,4.807175E-2,-2.07046E-2,3.7354868E-2,1.7060038E-2,-1.6627528E-3,4.3433923E-3,3.3981588E-2,4.7694556E-2,-6.95005E-2,-1.0155749E-1,-3.833299E-2,-8.808068E-3,1.4984636E-1,-4.374731E-2,6.5184996E-2,3.2979473E-2,1.1791497E-1,-3.6306765E-2,-5.7053324E-3,-2.8504347E-4,-1.9624874E-2,3.6481936E-2,-6.1563435E-3,8.416608E-2,-3.5629567E-2,-6.6841245E-2,4.0045947E-2,-8.5329205E-2,-9.953475E-3,6.657494E-2,-4.759323E-2],"categories":[],"categories_nodes":[],"categories_segments":[],"categories_sizes":[],"default_left":[0,0,0,0,0,0,0,0,0,0,0,0,0,0,0,0,0,0,0,0,0,0,0,0,0,0,0,0,0,0,0,0,0,0,0,0,0,0,0,0,0,0,0,0,0,0,0,0,0,0,0,0,0,0,0,0,0,0,0,0,0],"id":26,"left_children":[1,3,5,7,9,11,13,15,17,19,21,23,25,27,29,31,-1,33,35,37,39,41,43,45,47,49,51,53,55,57,59,-1,-1,-1,-1,-1,-1,-1,-1,-1,-1,-1,-1,-1,-1,-1,-1,-1,-1,-1,-1,-1,-1,-1,-1,-1,-1,-1,-1,-1,-1],"loss_changes":[1.5572019E1,4.6609077E0,9.945324E0,3.8626413E0,4.236062E0,9.211369E0,8.140619E0,6.705636E0,4.9083357E0,5.3144574E0,3.6663382E0,1.3542075E0,7.44792E0,3.7401686E0,1.6649421E0,3.459811E0,0E0,5.0770817E0,5.8328285E0,2.7945023E0,9.4472885E-2,2.6333246E0,1.8980398E0,2.0712304E0,5.3316772E-2,8.869396E0,1.2550035E1,2.9743977E0,3.2701638E0,4.037013E-1,2.1028178E0,0E0,0E0,0E0,0E0,0E0,0E0,0E0,0E0,0E0,0E0,0E0,0E0,0E0,0E0,0E0,0E0,0E0,0E0,0E0,0E0,0E0,0E0,0E0,0E0,0E0,0E0,0E0,0E0,0E0,0E0],"parents":[2147483647,0,0,1,1,2,2,3,3,4,4,5,5,6,6,7,7,8,8,9,9,10,10,11,11,12,12,13,13,14,14,15,15,17,17,18,18,19,19,20,20,21,21,22,22,23,23,24,24,25,25,26,26,27,27,28,28,29,29,30,30],"right_children":[2,4,6,8,10,12,14,16,18,20,22,24,26,28,30,32,-1,34,36,38,40,42,44,46,48,50,52,54,56,58,60,-1,-1,-1,-1,-1,-1,-1,-1,-1,-1,-1,-1,-1,-1,-1,-1,-1,-1,-1,-1,-1,-1,-1,-1,-1,-1,-1,-1,-1,-1],"split_conditions":[-1.3506868E0,1.2335933E0,1.8190068E0,1E0,1E0,-1.9437983E0,4.6418253E-2,1E0,-8.665054E-1,-1.5860205E0,-7.682698E-1,1E0,1E0,2.8730824E0,1E0,1E0,1.1560463E-1,-2.891445E-1,-6.724447E-1,1.9535109E0,-1.1357449E0,-1.5998636E0,2.6734283E0,1E0,-1.13035E0,-5.766197E-1,-1.2299162E0,1E0,-1.2791638E0,1E0,1E0,-2.07046E-2,3.7354868E-2,1.7060038E-2,-1.6627528E-3,4.3433923E-3,3.3981588E-2,4.7694556E-2,-6.95005E-2,-1.0155749E-1,-3.833299E-2,-8.808068E-3,1.4984636E-1,-4.374731E-2,6.5184996E-2,3.2979473E-2,1.1791497E-1,-3.6306765E-2,-5.7053324E-3,-2.8504347E-4,-1.9624874E-2,3.6481936E-2,-6.1563435E-3,8.416608E-2,-3.5629567E-2,-6.6841245E-2,4.0045947E-2,-8.5329205E-2,-9.953475E-3,6.657494E-2,-4.759323E-2],"split_indices":[7,1,0,42,31,6,6,44,5,7,0,15,31,0,36,47,0,0,0,1,4,7,1,58,7,0,6,26,7,58,33,0,0,0,0,0,0,0,0,0,0,0,0,0,0,0,0,0,0,0,0,0,0,0,0,0,0,0,0,0,0],"split_type":[0,0,0,0,0,0,0,0,0,0,0,0,0,0,0,0,0,0,0,0,0,0,0,0,0,0,0,0,0,0,0,0,0,0,0,0,0,0,0,0,0,0,0,0,0,0,0,0,0,0,0,0,0,0,0,0,0,0,0,0,0],"sum_hessian":[2.6419526E3,9.93676E2,1.6482767E3,9.640968E2,2.9579205E1,1.5983154E3,4.996124E1,9.619407E1,8.679027E2,1.9099812E1,1.0479393E1,4.625813E1,1.5520574E3,3.9999386E1,9.961855E0,9.299691E1,3.1971622E0,5.782774E2,2.896253E2,7.302287E0,1.17975235E1,3.3476434E0,7.1317496E0,4.3640064E1,2.6180656E0,1.0942229E3,4.5783447E2,2.8454826E1,1.1544559E1,5.443917E0,4.5179377E0,8.2217964E1,1.0778948E1,2.8257077E2,2.9570663E2,1.0339886E2,1.8622646E2,5.27506E0,2.027227E0,9.837867E0,1.9596566E0,1.4818156E0,1.8658277E0,6.00491E0,1.12684E0,4.130815E1,2.3319125E0,1.2647249E0,1.3533407E0,3.472507E2,7.4697217E2,8.359596E1,3.7423853E2,2.6752884E1,1.7019421E0,3.1222572E0,8.422301E0,4.2896733E0,1.1542438E0,1.9494683E0,2.5684693E0],"tree_param":{"num_deleted":"0","num_feature":"62","num_nodes":"61","size_leaf_vector":"1"}},{"base_weights":[-3.2285163E-3,-1.3370514E-1,3.3921387E-2,4.9284514E-2,-1.901216E-1,1.5591569E-1,-4.703458E-3,-1.05910994E-1,7.087403E-1,-2.0313406E-1,9.507184E-1,9.982904E-2,3.637321E-1,2.1996896E-3,-5.282837E-1,2.2720295E-1,-2.8431007E-1,1.1080941E0,-2.6851204E-1,-4.7290844E-1,-1.6729386E-1,1.3840863E0,-4.3421242E-2,2.2393149E-1,-1.9033667E-2,1.1060586E-1,5.146949E-1,2.7667401E-2,-1.5167907E-1,-2.5510845E-1,-8.3998024E-1,3.7804104E-3,6.312768E-2,7.28113E-2,-3.3889238E-2,3.7688753E-1,5.508835E-2,-4.816949E-2,4.8893303E-2,-8.98295E-2,-3.1177828E-2,-4.5754682E-2,-1.3374269E-2,1.7416711E-1,3.081858E-2,2.5042748E-2,-6.0724586E-2,-7.6028765E-3,3.0591488E-2,5.4536548E-2,-3.1008005E-2,7.042024E-3,7.082809E-2,1.0452467E-2,-3.9781844E-3,-1.4150653E-3,-2.6516348E-2,-4.138991E-2,5.002634E-2,-9.2412256E-2,-3.1310346E-2],"categories":[],"categories_nodes":[],"categories_segments":[],"categories_sizes":[],"default_left":[0,0,0,0,0,0,0,0,0,0,0,0,0,0,0,0,0,0,0,0,0,0,0,0,0,0,0,0,0,0,0,0,0,0,0,0,0,0,0,0,0,0,0,0,0,0,0,0,0,0,0,0,0,0,0,0,0,0,0,0,0],"id":27,"left_children":[1,3,5,7,9,11,13,15,17,19,21,23,25,27,29,31,33,35,37,39,41,43,-1,45,47,49,51,53,55,57,59,-1,-1,-1,-1,-1,-1,-1,-1,-1,-1,-1,-1,-1,-1,-1,-1,-1,-1,-1,-1,-1,-1,-1,-1,-1,-1,-1,-1,-1,-1],"loss_changes":[1.2758663E1,